{"learner":{"attributes":{"best_iteration":"76","best_score":"0.2028508222717498","scikit_learn":"{\"_estimator_type\": \"classifier\"}"},"feature_names":["Number of Spikes","Mean Firing Rate (Hz)","Weighted Mean Firing Rate (Hz)","ISI Coefficient of Variation - Avg","Number of Bursting Electrodes","Burst Duration - Avg (s)","Burst Duration - Std (s)","Number of Spikes per Burst - Avg","Number of Spikes per Burst - Std","Mean ISI within Burst - Avg","Mean ISI within Burst - Std","Median ISI within Burst - Avg","Median ISI within Burst - Std","Inter-Burst Interval - Avg (s)","Inter-Burst Interval - Std (s)","Burst Frequency - Avg (Hz)","Burst Frequency - Std (Hz)","Normalized Duration IQR - Avg","Normalized Duration IQR - Std","IBI Coefficient of Variation - Avg","IBI Coefficient of Variation - Std","Burst Percentage - Avg","Burst Percentage - Std","Number of Network Bursts","Network Burst Frequency (Hz)","Network Burst Duration - Avg (sec)","Network Burst Duration - Std (sec)","Number of Spikes per Network Burst - Avg","Number of Spikes per Network Burst - Std","Number of Elecs Participating in Burst - Avg","Number of Elecs Participating in Burst - Std","Number of Spikes per Network Burst per Channel - Avg","Number of Spikes per Network Burst per Channel - Std","Network Burst Percentage","Network ISI Coefficient of Variation","Area Under Normalized Cross-Correlation","Area Under Cross-Correlation","Width at Half Height of Normalized Cross-Correlation","Synchrony Index"],"feature_types":["int","float","float","float","int","float","float","float","float","float","float","float","float","float","float","float","float","float","float","float","float","float","float","int","float","float","float","float","float","float","float","float","float","float","float","float","float","int","float"],"gradient_booster":{"model":{"gbtree_model_param":{"num_parallel_tree":"1","num_trees":"87"},"iteration_indptr":[0,1,2,3,4,5,6,7,8,9,10,11,12,13,14,15,16,17,18,19,20,21,22,23,24,25,26,27,28,29,30,31,32,33,34,35,36,37,38,39,40,41,42,43,44,45,46,47,48,49,50,51,52,53,54,55,56,57,58,59,60,61,62,63,64,65,66,67,68,69,70,71,72,73,74,75,76,77,78,79,80,81,82,83,84,85,86,87],"tree_info":[0,0,0,0,0,0,0,0,0,0,0,0,0,0,0,0,0,0,0,0,0,0,0,0,0,0,0,0,0,0,0,0,0,0,0,0,0,0,0,0,0,0,0,0,0,0,0,0,0,0,0,0,0,0,0,0,0,0,0,0,0,0,0,0,0,0,0,0,0,0,0,0,0,0,0,0,0,0,0,0,0,0,0,0,0,0,0],"trees":[{"base_weights":[3.381518E-2,8.268012E-1,-2.3392758E0,-9.499339E-1,1.0948429E0,1.1254833E0,-2.566122E0,1.4789972E-1,-2.0145981E-1,8.273514E-3,1.3103534E-1,1.3399154E-1,7.031633E-3,9.794651E-3,-2.6719594E-1],"categories":[],"categories_nodes":[],"categories_segments":[],"categories_sizes":[],"default_left":[0,0,0,0,0,0,0,0,0,0,0,0,0,0,0],"id":0,"left_children":[1,3,5,7,9,11,13,-1,-1,-1,-1,-1,-1,-1,-1],"loss_changes":[8.617985E2,1.6449721E2,9.304291E1,1.2071338E2,6.504343E1,1.6578836E0,3.0702332E1,0E0,0E0,0E0,0E0,0E0,0E0,0E0,0E0],"parents":[2147483647,0,0,1,1,2,2,3,3,4,4,5,5,6,6],"right_children":[2,4,6,8,10,12,14,-1,-1,-1,-1,-1,-1,-1,-1],"split_conditions":[5.207171E0,2.3188E-2,2.618332E0,5.32396E-1,1.060924E0,1.19E3,8.8588E-2,1.4789972E-1,-2.0145981E-1,8.273514E-3,1.3103534E-1,1.3399154E-1,7.031633E-3,9.794651E-3,-2.6719594E-1],"split_indices":[34,9,36,25,25,0,26,0,0,0,0,0,0,0,0],"split_type":[0,0,0,0,0,0,0,0,0,0,0,0,0,0,0],"sum_hessian":[4.559304E2,3.4222495E2,1.1370542E2,4.4527443E1,2.976975E2,6.7436857E0,1.0696174E2,1.3451028E1,3.1076416E1,5.250424E1,2.4519327E2,5.380411E0,1.3632745E0,4.0898232E0,1.0287192E2],"tree_param":{"num_deleted":"0","num_feature":"39","num_nodes":"15","size_leaf_vector":"1"}},{"base_weights":[3.8106117E-2,7.5906086E-1,-2.1022737E0,9.7830033E-1,-1.252077E0,1.1746577E-1,-2.216333E0,-1.8263629E-2,1.1938856E-1,1.1038009E-1,-1.9611897E-1,-7.683355E-2,-2.2823592E-1],"categories":[],"categories_nodes":[],"categories_segments":[],"categories_sizes":[],"default_left":[0,0,0,0,0,0,0,0,0,0,0,0,0],"id":1,"left_children":[1,3,5,7,9,-1,11,-1,-1,-1,-1,-1,-1],"loss_changes":[6.9128906E2,1.4896327E2,4.4794037E1,7.597629E1,5.792013E1,0E0,8.708557E0,0E0,0E0,0E0,0E0,0E0,0E0],"parents":[2147483647,0,0,1,1,2,2,3,3,4,4,6,6],"right_children":[2,4,6,8,10,-1,12,-1,-1,-1,-1,-1,-1],"split_conditions":[5.303575E0,3.10969E-1,1.061E3,3.18914E-1,5.16544E-1,1.1746577E-1,2.30885E-1,-1.8263629E-2,1.1938856E-1,1.1038009E-1,-1.9611897E-1,-7.683355E-2,-2.2823592E-1],"split_indices":[34,35,0,5,25,0,35,0,0,0,0,0,0],"split_type":[0,0,0,0,0,0,0,0,0,0,0,0,0],"sum_hessian":[4.4594812E2,3.3406778E2,1.1188034E2,3.01693E2,3.2374798E1,3.4504337E0,1.0842991E2,4.7273865E1,2.5441913E2,7.3614225E0,2.5013374E1,5.279684E0,1.0315022E2],"tree_param":{"num_deleted":"0","num_feature":"39","num_nodes":"13","size_leaf_vector":"1"}},{"base_weights":[1.3570143E-2,8.4100163E-1,-1.5390207E0,9.4925994E-1,-1.4741328E0,6.666671E-1,-1.7950938E0,6.3389647E-3,1.1969825E-1,9.091606E-2,-1.8974333E-1,1.4363189E-1,-1.7507882E-1,-9.246E-2,-2.024691E-1],"categories":[],"categories_nodes":[],"categories_segments":[],"categories_sizes":[],"default_left":[0,0,0,0,0,0,0,0,0,0,0,0,0,0,0],"id":2,"left_children":[1,3,5,7,9,11,13,-1,-1,-1,-1,-1,-1,-1,-1],"loss_changes":[5.6160236E2,7.287157E1,8.704031E1,5.9841965E1,1.4972038E1,3.3286537E1,2.5398438E1,0E0,0E0,0E0,0E0,0E0,0E0,0E0,0E0],"parents":[2147483647,0,0,1,1,2,2,3,3,4,4,5,5,6,6],"right_children":[2,4,6,8,10,12,14,-1,-1,-1,-1,-1,-1,-1,-1],"split_conditions":[2.66629E-1,6.368897E0,2.618332E0,3.5824E-1,9.91E2,1.9E1,4.445178E0,6.3389647E-3,1.1969825E-1,9.091606E-2,-1.8974333E-1,1.4363189E-1,-1.7507882E-1,-9.246E-2,-2.024691E-1],"split_indices":[35,34,36,5,0,37,34,0,0,0,0,0,0,0,0],"split_type":[0,0,0,0,0,0,0,0,0,0,0,0,0,0,0],"sum_hessian":[4.3515195E2,2.841673E2,1.5098465E2,2.7203653E2,1.2130762E1,1.5538679E1,1.3544597E2,5.9722225E1,2.1231432E2,1.6564914E0,1.0474271E1,1.2094103E1,3.4445767E0,2.9317774E1,1.061282E2],"tree_param":{"num_deleted":"0","num_feature":"39","num_nodes":"15","size_leaf_vector":"1"}},{"base_weights":[-9.314069E-3,6.0628587E-1,-1.8351668E0,-9.7043216E-1,8.7839985E-1,8.615627E-2,-1.8826078E-1,1.0525695E-1,-1.7777714E-1,-1.7778657E-5,1.1074354E-1],"categories":[],"categories_nodes":[],"categories_segments":[],"categories_sizes":[],"default_left":[0,0,0,0,0,0,0,0,0,0,0],"id":3,"left_children":[1,3,5,7,9,-1,-1,-1,-1,-1,-1],"loss_changes":[4.8844208E2,1.4029205E2,1.5639893E1,8.0771645E1,5.5878433E1,0E0,0E0,0E0,0E0,0E0,0E0],"parents":[2147483647,0,0,1,1,2,2,3,3,4,4],"right_children":[2,4,6,8,10,-1,-1,-1,-1,-1,-1],"split_conditions":[4.0861E0,2.2575E-2,1.52671E-1,5.16544E-1,1.060924E0,8.615627E-2,-1.8826078E-1,1.0525695E-1,-1.7777714E-1,-1.7778657E-5,1.1074354E-1],"split_indices":[3,9,35,25,25,0,0,0,0,0,0],"split_type":[0,0,0,0,0,0,0,0,0,0,0],"sum_hessian":[4.325691E2,3.239985E2,1.0857059E2,4.730889E1,2.7668964E2,1.5802794E0,1.069903E2,1.3407957E1,3.3900936E1,5.7421326E1,2.192683E2],"tree_param":{"num_deleted":"0","num_feature":"39","num_nodes":"11","size_leaf_vector":"1"}},{"base_weights":[-8.182862E-3,5.2454E-1,-1.6744658E0,-9.4038635E-1,7.8646374E-1,1.2262792E-1,-1.7302573E-1,8.887918E-2,-1.6210279E-1,9.3595125E-2,-9.665408E-2,-1.0690232E-1,1.0599394E-1],"categories":[],"categories_nodes":[],"categories_segments":[],"categories_sizes":[],"default_left":[0,0,0,0,0,0,0,0,0,0,0,0,0],"id":4,"left_children":[1,3,5,7,9,11,-1,-1,-1,-1,-1,-1,-1],"loss_changes":[3.685541E2,1.21459885E2,1.0296783E1,6.1421158E1,7.098949E1,5.558905E0,0E0,0E0,0E0,0E0,0E0,0E0,0E0],"parents":[2147483647,0,0,1,1,2,2,3,3,4,4,5,5],"right_children":[2,4,6,8,10,12,-1,-1,-1,-1,-1,-1,-1],"split_conditions":[4.0861E0,1.8172E-2,4.040001E0,5.32396E-1,1.6E1,6.214822E0,-1.7302573E-1,8.887918E-2,-1.6210279E-1,9.3595125E-2,-9.665408E-2,-1.0690232E-1,1.0599394E-1],"split_indices":[3,11,34,25,23,14,0,0,0,0,0,0,0],"split_type":[0,0,0,0,0,0,0,0,0,0,0,0,0],"sum_hessian":[4.1320465E2,3.1362247E2,9.95822E1,4.717647E1,2.6644598E2,2.9624083E0,9.661979E1,1.2710917E1,3.4465553E1,2.4593956E2,2.0506418E1,1.2423832E0,1.720025E0],"tree_param":{"num_deleted":"0","num_feature":"39","num_nodes":"13","size_leaf_vector":"1"}},{"base_weights":[-1.0324947E-2,6.637324E-1,-1.2563325E0,7.7305496E-1,-1.4266902E0,9.4224197E-1,-1.4938551E0,7.441118E-3,1.0405389E-1,8.317749E-3,-1.5788423E-1,1.3698748E-1,-1.2230059E-1,-1.5557246E-1,-3.096196E-3],"categories":[],"categories_nodes":[],"categories_segments":[],"categories_sizes":[],"default_left":[0,0,0,0,0,0,0,0,0,0,0,0,0,0,0],"id":5,"left_children":[1,3,5,7,9,11,13,-1,-1,-1,-1,-1,-1,-1,-1],"loss_changes":[3.4618222E2,6.2232582E1,7.696997E1,4.7547028E1,3.2660103E0,1.5306332E1,1.1806244E1,0E0,0E0,0E0,0E0,0E0,0E0,0E0,0E0],"parents":[2147483647,0,0,1,1,2,2,3,3,4,4,5,5,6,6],"right_children":[2,4,6,8,10,12,14,-1,-1,-1,-1,-1,-1,-1,-1],"split_conditions":[2.72983E-1,4.0861E0,2.710705E0,3.78091E-1,4.33089E-1,1.4E1,1.241E-1,7.441118E-3,1.0405389E-1,8.317749E-3,-1.5788423E-1,1.3698748E-1,-1.2230059E-1,-1.5557246E-1,-3.096196E-3],"split_indices":[35,3,36,5,38,37,16,0,0,0,0,0,0,0,0],"split_type":[0,0,0,0,0,0,0,0,0,0,0,0,0,0,0],"sum_hessian":[4.1018744E2,2.6649042E2,1.43697E2,2.538453E2,1.2645121E1,1.3721365E1,1.2997565E2,7.063398E1,1.8321133E2,1.1991173E0,1.1446004E1,1.1765112E1,1.9562533E0,1.2464081E2,5.334836E0],"tree_param":{"num_deleted":"0","num_feature":"39","num_nodes":"15","size_leaf_vector":"1"}},{"base_weights":[-1.6070144E-4,5.948487E-1,-1.1527721E0,7.204952E-1,-8.492849E-1,6.844301E-1,-1.3565416E0,-1.2217316E-2,1.0265636E-1,1.08559646E-1,-1.6617887E-1,1.0708415E-1,-1.13011934E-1,-1.3540301E-2,-1.4861713E-1],"categories":[],"categories_nodes":[],"categories_segments":[],"categories_sizes":[],"default_left":[0,0,0,0,0,0,0,0,0,0,0,0,0,0,0],"id":6,"left_children":[1,3,5,7,9,11,13,-1,-1,-1,-1,-1,-1,-1,-1],"loss_changes":[2.6753735E2,4.7296288E1,5.065065E1,6.131099E1,3.490024E1,1.09739E1,1.8777206E1,0E0,0E0,0E0,0E0,0E0,0E0,0E0,0E0],"parents":[2147483647,0,0,1,1,2,2,3,3,4,4,5,5,6,6],"right_children":[2,4,6,8,10,12,14,-1,-1,-1,-1,-1,-1,-1,-1],"split_conditions":[2.72983E-1,5.280588E0,2.618332E0,1.7742857E2,1.21153E-1,8.2159424E1,4.78751E-1,-1.2217316E-2,1.0265636E-1,1.08559646E-1,-1.6617887E-1,1.0708415E-1,-1.13011934E-1,-1.3540301E-2,-1.4861713E-1],"split_indices":[35,34,36,27,26,33,19,0,0,0,0,0,0,0,0],"split_type":[0,0,0,0,0,0,0,0,0,0,0,0,0,0,0],"sum_hessian":[3.881017E2,2.5628455E2,1.3181715E2,2.362323E2,2.0052252E1,1.2925047E1,1.18892105E2,6.3101597E1,1.7313069E2,5.8307943E0,1.4221458E1,1.0993765E1,1.9312825E0,1.1605981E1,1.07286125E2],"tree_param":{"num_deleted":"0","num_feature":"39","num_nodes":"15","size_leaf_vector":"1"}},{"base_weights":[3.575795E-2,4.8770392E-1,-1.4030155E0,-7.584786E-1,7.339865E-1,5.6664612E-2,-1.4339851E0,1.0040887E-1,-1.3619451E-1,-7.5757587E-3,9.5458314E-2,3.8635914E-4,-1.4530186E-1],"categories":[],"categories_nodes":[],"categories_segments":[],"categories_sizes":[],"default_left":[0,0,0,0,0,0,0,0,0,0,0,0,0],"id":7,"left_children":[1,3,5,7,9,-1,11,-1,-1,-1,-1,-1,-1],"loss_changes":[2.479204E2,8.958461E1,6.372238E0,5.2804832E1,4.3427902E1,0E0,2.4690857E0,0E0,0E0,0E0,0E0,0E0,0E0],"parents":[2147483647,0,0,1,1,2,2,3,3,4,4,6,6],"right_children":[2,4,6,8,10,-1,12,-1,-1,-1,-1,-1,-1],"split_conditions":[4.0861E0,2.3535E-2,7.594195E1,5.16544E-1,1.060924E0,5.6664612E-2,1.67415E-1,1.0040887E-1,-1.3619451E-1,-7.5757587E-3,9.5458314E-2,3.8635914E-4,-1.4530186E-1],"split_indices":[3,9,33,25,25,0,35,0,0,0,0,0,0],"split_type":[0,0,0,0,0,0,0,0,0,0,0,0,0],"sum_hessian":[3.792183E2,2.8907532E2,9.0143E1,4.7359245E1,2.4171606E2,1.127651E0,8.901534E1,1.1909844E1,3.54494E1,5.1892136E1,1.8982393E2,1.1733621E0,8.784199E1],"tree_param":{"num_deleted":"0","num_feature":"39","num_nodes":"13","size_leaf_vector":"1"}},{"base_weights":[-6.010006E-3,4.577567E-1,-1.2201105E0,8.734561E-1,-2.5719616E-1,1.079482E-1,-1.3844852E0,9.806534E-2,-9.1949746E-2,-1.2397436E-1,5.3960662E-2,-1.4321218E-1,-2.9034305E-2],"categories":[],"categories_nodes":[],"categories_segments":[],"categories_sizes":[],"default_left":[0,0,0,0,0,0,0,0,0,0,0,0,0],"id":8,"left_children":[1,3,5,7,9,-1,11,-1,-1,-1,-1,-1,-1],"loss_changes":[2.031089E2,7.780368E1,3.918196E1,3.266945E1,7.6408775E1,0E0,4.4570312E0,0E0,0E0,0E0,0E0,0E0,0E0],"parents":[2147483647,0,0,1,1,2,2,3,3,4,4,6,6],"right_children":[2,4,6,8,10,-1,12,-1,-1,-1,-1,-1,-1],"split_conditions":[5.207171E0,1.1E1,2.388471E0,4.339431E0,2.150552E1,1.079482E-1,5.2E1,9.806534E-2,-9.1949746E-2,-1.2397436E-1,5.3960662E-2,-1.4321218E-1,-2.9034305E-2],"split_indices":[34,23,36,34,7,0,37,0,0,0,0,0,0],"split_type":[0,0,0,0,0,0,0,0,0,0,0,0,0],"sum_hessian":[3.5873184E2,2.6002823E2,9.87036E1,1.6428519E2,9.574304E1,6.2132583E0,9.249034E1,1.5544452E2,8.8406725E0,4.2625324E1,5.311772E1,8.83355E1,4.154835E0],"tree_param":{"num_deleted":"0","num_feature":"39","num_nodes":"13","size_leaf_vector":"1"}},{"base_weights":[8.781763E-3,3.9977673E-1,-1.2706345E0,-6.6570234E-1,6.5315896E-1,7.174276E-2,-1.3122443E0,1.3092315E-1,-1.0835415E-1,7.899844E-2,-8.2671E-2,5.436751E-2,-1.3446146E-1],"categories":[],"categories_nodes":[],"categories_segments":[],"categories_sizes":[],"default_left":[0,0,0,0,0,0,0,0,0,0,0,0,0],"id":9,"left_children":[1,3,5,7,9,-1,11,-1,-1,-1,-1,-1,-1],"loss_changes":[1.7164955E2,7.138295E1,7.5856476E0,4.349106E1,4.374411E1,0E0,5.478607E0,0E0,0E0,0E0,0E0,0E0,0E0],"parents":[2147483647,0,0,1,1,2,2,3,3,4,4,6,6],"right_children":[2,4,6,8,10,-1,12,-1,-1,-1,-1,-1,-1],"split_conditions":[4.0861E0,2.3633E-2,3.91599E-1,1.922604E0,1.6E1,7.174276E-2,1.838E3,1.3092315E-1,-1.0835415E-1,7.899844E-2,-8.2671E-2,5.436751E-2,-1.3446146E-1],"split_indices":[3,9,38,2,23,0,0,0,0,0,0,0,0],"split_type":[0,0,0,0,0,0,0,0,0,0,0,0,0],"sum_hessian":[3.4111533E2,2.617967E2,7.9318634E1,4.9984264E1,2.1181242E2,1.293124E0,7.8025505E1,8.355991E0,4.1628273E1,1.9431287E2,1.749955E1,1.0667877E0,7.695872E1],"tree_param":{"num_deleted":"0","num_feature":"39","num_nodes":"13","size_leaf_vector":"1"}},{"base_weights":[-3.8980138E-2,4.9282518E-1,-9.348447E-1,-2.4311675E-1,7.656376E-1,7.877714E-1,-1.1740795E0,9.307641E-2,-1.2194494E-1,9.274369E-2,-1.2234743E-1,1.2191569E-1,-1.0908083E-1,-1.9496925E-2,-1.2820159E-1],"categories":[],"categories_nodes":[],"categories_segments":[],"categories_sizes":[],"default_left":[0,0,0,0,0,0,0,0,0,0,0,0,0,0,0],"id":10,"left_children":[1,3,5,7,9,11,13,-1,-1,-1,-1,-1,-1,-1,-1],"loss_changes":[1.5542549E2,4.1296505E1,5.099881E1,6.5471344E1,4.928927E1,1.3822337E1,1.1067566E1,0E0,0E0,0E0,0E0,0E0,0E0,0E0,0E0],"parents":[2147483647,0,0,1,1,2,2,3,3,4,4,5,5,6,6],"right_children":[2,4,6,8,10,12,14,-1,-1,-1,-1,-1,-1,-1,-1],"split_conditions":[2.66629E-1,1.7078572E2,2.710705E0,2.179198E0,8.992923E1,2E1,4.79945E-1,9.307641E-2,-1.2194494E-1,9.274369E-2,-1.2234743E-1,1.2191569E-1,-1.0908083E-1,-1.9496925E-2,-1.2820159E-1],"split_indices":[35,27,36,2,33,37,19,0,0,0,0,0,0,0,0],"split_type":[0,0,0,0,0,0,0,0,0,0,0,0,0,0,0],"sum_hessian":[3.242655E2,2.037593E2,1.205062E2,5.5135086E1,1.486242E2,1.4415343E1,1.0609086E2,2.5056002E1,3.0079084E1,1.3793776E2,1.0686454E1,1.200875E1,2.4065936E0,1.081275E1,9.5278114E1],"tree_param":{"num_deleted":"0","num_feature":"39","num_nodes":"15","size_leaf_vector":"1"}},{"base_weights":[7.944289E-2,4.6276468E-1,-1.1116991E0,5.9025985E-1,-9.5788866E-1,1.0202471E-1,-1.2376173E0,-5.6565567E-3,8.594598E-2,1.017242E-1,-1.3689643E-1,-1.2915462E-1,-2.2368398E-2],"categories":[],"categories_nodes":[],"categories_segments":[],"categories_sizes":[],"default_left":[0,0,0,0,0,0,0,0,0,0,0,0,0],"id":11,"left_children":[1,3,5,7,9,-1,11,-1,-1,-1,-1,-1,-1],"loss_changes":[1.473092E2,4.4748394E1,2.2354156E1,3.913356E1,1.8012808E1,0E0,3.792305E0,0E0,0E0,0E0,0E0,0E0,0E0],"parents":[2147483647,0,0,1,1,2,2,3,3,4,4,6,6],"right_children":[2,4,6,8,10,-1,12,-1,-1,-1,-1,-1,-1],"split_conditions":[5.303575E0,3.50867E-1,1.061E3,1.7078572E2,2.14358E0,1.0202471E-1,5.2E1,-5.6565567E-3,8.594598E-2,1.017242E-1,-1.3689643E-1,-1.2915462E-1,-2.2368398E-2],"split_indices":[34,35,0,27,36,0,37,0,0,0,0,0,0],"split_type":[0,0,0,0,0,0,0,0,0,0,0,0,0],"sum_hessian":[3.2050186E2,2.4293451E2,7.7567345E1,2.2346443E2,1.9470085E1,3.929736E0,7.36376E1,6.590346E1,1.5756097E2,3.1001143E0,1.636997E1,6.9658806E1,3.9787986E0],"tree_param":{"num_deleted":"0","num_feature":"39","num_nodes":"13","size_leaf_vector":"1"}},{"base_weights":[-1.6379047E-2,4.0487176E-1,-9.8071826E-1,8.5711145E-1,-3.130875E-1,8.685788E-1,-1.186908E0,-1.6432829E-1,9.0625E-2,-8.666743E-2,5.3715546E-2,1.1773441E-1,-7.2172835E-2,-1.2640871E-1,-4.5355977E-3],"categories":[],"categories_nodes":[],"categories_segments":[],"categories_sizes":[],"default_left":[0,0,0,0,0,0,0,0,0,0,0,0,0,0,0],"id":12,"left_children":[1,3,5,7,9,11,13,-1,-1,-1,-1,-1,-1,-1,-1],"loss_changes":[1.2266681E2,6.85143E1,3.603454E1,1.7366638E1,3.9043983E1,5.654952E0,7.2564545E0,0E0,0E0,0E0,0E0,0E0,0E0,0E0,0E0],"parents":[2147483647,0,0,1,1,2,2,3,3,4,4,5,5,6,6],"right_children":[2,4,6,8,10,12,14,-1,-1,-1,-1,-1,-1,-1,-1],"split_conditions":[4.778701E0,1.1E1,6E0,9.342322E0,4.28174E-1,6.02885E-1,5.2E1,-1.6432829E-1,9.0625E-2,-8.666743E-2,5.3715546E-2,1.1773441E-1,-7.2172835E-2,-1.2640871E-1,-4.5355977E-3],"split_indices":[34,23,4,7,5,19,37,0,0,0,0,0,0,0,0],"split_type":[0,0,0,0,0,0,0,0,0,0,0,0,0,0,0],"sum_hessian":[2.9998752E2,2.0918828E2,9.079924E1,1.2822565E2,8.096264E1,8.785987E0,8.201325E1,1.8460932E0,1.2637955E2,4.9024094E1,3.1938543E1,7.5749516E0,1.2110357E0,7.6719025E1,5.2942286E0],"tree_param":{"num_deleted":"0","num_feature":"39","num_nodes":"15","size_leaf_vector":"1"}},{"base_weights":[5.5752106E-2,4.962751E-1,-8.489948E-1,-6.4430946E-1,6.4747536E-1,1.1388464E-1,-1.0005035E0,-1.9263466E-1,3.281244E-2,7.234698E-2,-8.624203E-2,8.6827554E-2,-1.06600724E-1],"categories":[],"categories_nodes":[],"categories_segments":[],"categories_sizes":[],"default_left":[0,0,0,0,0,0,0,0,0,0,0,0,0],"id":13,"left_children":[1,3,5,7,9,-1,11,-1,-1,-1,-1,-1,-1],"loss_changes":[1.17852394E2,3.4699158E1,3.030854E1,3.026436E1,2.0820824E1,0E0,1.2006851E1,0E0,0E0,0E0,0E0,0E0,0E0],"parents":[2147483647,0,0,1,1,2,2,3,3,4,4,6,6],"right_children":[2,4,6,8,10,-1,12,-1,-1,-1,-1,-1,-1],"split_conditions":[2.72983E-1,6.099564E0,1.272E3,7.39208E-1,6.368897E0,1.1388464E-1,5.5468445E1,-1.9263466E-1,3.281244E-2,7.234698E-2,-8.624203E-2,8.6827554E-2,-1.06600724E-1],"split_indices":[35,13,0,17,34,0,33,0,0,0,0,0,0],"split_type":[0,0,0,0,0,0,0,0,0,0,0,0,0],"sum_hessian":[2.9363702E2,1.9778607E2,9.5850945E1,2.2768648E1,1.7501743E2,6.3266535E0,8.952429E1,9.397811E0,1.3370837E1,1.6712663E2,7.8907914E0,2.6166806E0,8.690761E1],"tree_param":{"num_deleted":"0","num_feature":"39","num_nodes":"13","size_leaf_vector":"1"}},{"base_weights":[9.986145E-3,3.054998E-1,-1.1485262E0,-1.18383616E-1,1.0247085E0,2.5159836E-2,-1.1810558E0,3.1465404E-2,-9.92349E-2,1.0542458E-1,-5.867035E-2,-7.166289E-3,-1.202113E-1],"categories":[],"categories_nodes":[],"categories_segments":[],"categories_sizes":[],"default_left":[0,0,0,0,0,0,0,0,0,0,0,0,0],"id":14,"left_children":[1,3,5,7,9,-1,11,-1,-1,-1,-1,-1,-1],"loss_changes":[9.539297E1,6.779436E1,2.8764648E0,5.350918E1,4.541397E0,0E0,1.2108688E0,0E0,0E0,0E0,0E0,0E0,0E0],"parents":[2147483647,0,0,1,1,2,2,3,3,4,4,6,6],"right_children":[2,4,6,8,10,-1,12,-1,-1,-1,-1,-1,-1],"split_conditions":[4.0861E0,5.25922E-1,1.2567E-2,4.164697E0,6.94875E2,2.5159836E-2,4.36668E-1,3.1465404E-2,-9.92349E-2,1.0542458E-1,-5.867035E-2,-7.166289E-3,-1.202113E-1],"split_indices":[3,5,16,36,27,0,38,0,0,0,0,0,0],"split_type":[0,0,0,0,0,0,0,0,0,0,0,0,0],"sum_hessian":[2.7661172E2,2.209803E2,5.5631424E1,1.3956161E2,8.141869E1,1.1102495E0,5.452117E1,9.374985E1,4.5811768E1,8.029269E1,1.1260084E0,1.0976024E0,5.3423573E1],"tree_param":{"num_deleted":"0","num_feature":"39","num_nodes":"13","size_leaf_vector":"1"}},{"base_weights":[3.7948895E-2,3.1445235E-1,-1.097178E0,9.2503196E-1,-6.399488E-2,1.7522329E-1,-1.16763316E-1,9.898146E-2,-1.2207367E-1,-9.1512725E-2,2.5457008E-2,6.9839925E-2,-3.6009874E-2],"categories":[],"categories_nodes":[],"categories_segments":[],"categories_sizes":[],"default_left":[0,0,0,0,0,0,0,0,0,0,0,0,0],"id":15,"left_children":[1,3,5,7,9,11,-1,-1,-1,-1,-1,-1,-1],"loss_changes":[8.694726E1,5.1507847E1,5.0696487E0,1.3060394E1,3.7756237E1,1.2924532E0,0E0,0E0,0E0,0E0,0E0,0E0,0E0],"parents":[2147483647,0,0,1,1,2,2,3,3,4,4,5,5],"right_children":[2,4,6,8,10,12,-1,-1,-1,-1,-1,-1,-1],"split_conditions":[4.0861E0,9E0,4.040001E0,9.064562E1,2.395489E0,6.2028187E1,-1.16763316E-1,9.898146E-2,-1.2207367E-1,-9.1512725E-2,2.5457008E-2,6.9839925E-2,-3.6009874E-2],"split_indices":[3,23,34,33,3,21,0,0,0,0,0,0,0],"split_type":[0,0,0,0,0,0,0,0,0,0,0,0,0],"sum_hessian":[2.7492065E2,2.2165187E2,5.326879E1,8.4261566E1,1.373903E2,2.7168186E0,5.055197E1,8.231512E1,1.9464533E0,3.690799E1,1.0048232E2,1.2199321E0,1.4968864E0],"tree_param":{"num_deleted":"0","num_feature":"39","num_nodes":"13","size_leaf_vector":"1"}},{"base_weights":[5.1250286E-2,3.2034475E-1,-1.0752966E0,-2.4312908E-2,1.008179E0,1.04388185E-1,-1.1480903E-1,1.01937614E-1,-2.8874788E-2,1.0577281E-1,-1.7021537E-3,7.735592E-2,-7.767494E-2],"categories":[],"categories_nodes":[],"categories_segments":[],"categories_sizes":[],"default_left":[0,0,0,0,0,0,0,0,0,0,0,0,0],"id":16,"left_children":[1,3,5,7,9,11,-1,-1,-1,-1,-1,-1,-1],"loss_changes":[7.902736E1,4.98748E1,4.4370575E0,3.922572E1,3.5848618E0,2.8642032E0,0E0,0E0,0E0,0E0,0E0,0E0,0E0],"parents":[2147483647,0,0,1,1,2,2,3,3,4,4,5,5],"right_children":[2,4,6,8,10,12,-1,-1,-1,-1,-1,-1,-1],"split_conditions":[4.0861E0,5.25922E-1,4.040001E0,2.457026E0,9.064562E1,6.5357506E1,-1.1480903E-1,1.01937614E-1,-2.8874788E-2,1.0577281E-1,-1.7021537E-3,7.735592E-2,-7.767494E-2],"split_indices":[3,5,34,34,33,21,0,0,0,0,0,0,0],"split_type":[0,0,0,0,0,0,0,0,0,0,0,0,0],"sum_hessian":[2.5855313E2,2.09279E2,4.9274128E1,1.400619E2,6.9217094E1,2.8385687E0,4.6435562E1,2.773615E1,1.1232576E2,6.599572E1,3.2213733E0,1.6827282E0,1.1558405E0],"tree_param":{"num_deleted":"0","num_feature":"39","num_nodes":"13","size_leaf_vector":"1"}},{"base_weights":[5.2170508E-2,3.317722E-1,-9.571449E-1,-5.040648E-1,5.388344E-1,7.649081E-1,-1.1219562E0,-9.3465015E-2,9.527147E-2,7.2750524E-3,8.125502E-2,9.519836E-2,-2.4997164E-3,-1.1818173E-1,-6.148456E-3],"categories":[],"categories_nodes":[],"categories_segments":[],"categories_sizes":[],"default_left":[0,0,0,0,0,0,0,0,0,0,0,0,0,0,0],"id":17,"left_children":[1,3,5,7,9,11,13,-1,-1,-1,-1,-1,-1,-1,-1],"loss_changes":[7.271432E1,3.5167885E1,1.6725552E1,2.6325787E1,2.0618336E1,8.3328557E-1,3.1921463E0,0E0,0E0,0E0,0E0,0E0,0E0,0E0,0E0],"parents":[2147483647,0,0,1,1,2,2,3,3,4,4,5,5,6,6],"right_children":[2,4,6,8,10,12,14,-1,-1,-1,-1,-1,-1,-1,-1],"split_conditions":[5.207171E0,6.099564E0,2.618332E0,1.220789E0,3.78091E-1,6.00058E-1,5.2E1,-9.3465015E-2,9.527147E-2,7.2750524E-3,8.125502E-2,9.519836E-2,-2.4997164E-3,-1.1818173E-1,-6.148456E-3],"split_indices":[34,13,36,17,5,17,37,0,0,0,0,0,0,0,0],"split_type":[0,0,0,0,0,0,0,0,0,0,0,0,0,0,0],"sum_hessian":[2.555384E2,2.0063075E2,5.4907665E1,3.9549393E1,1.6108136E2,4.4779606E0,5.0429707E1,3.08032E1,8.746194E0,6.0066235E1,1.0101512E2,3.454609E0,1.0233519E0,4.7626858E1,2.8028498E0],"tree_param":{"num_deleted":"0","num_feature":"39","num_nodes":"15","size_leaf_vector":"1"}},{"base_weights":[1.701816E-2,2.4502133E-1,-1.0464144E0,-2.0191562E-1,6.9996715E-1,1.3434878E-1,-1.12122454E-1,9.4556116E-2,-6.383431E-2,8.8122174E-2,-1.1613781E-3,6.526195E-2,-3.8522355E-2],"categories":[],"categories_nodes":[],"categories_segments":[],"categories_sizes":[],"default_left":[0,0,0,0,0,0,0,0,0,0,0,0,0],"id":18,"left_children":[1,3,5,7,9,11,-1,-1,-1,-1,-1,-1,-1],"loss_changes":[6.001808E1,4.1574253E1,4.011223E0,5.2468307E1,1.3063244E1,1.1930838E0,0E0,0E0,0E0,0E0,0E0,0E0,0E0],"parents":[2147483647,0,0,1,1,2,2,3,3,4,4,5,5],"right_children":[2,4,6,8,10,12,-1,-1,-1,-1,-1,-1,-1],"split_conditions":[4.0861E0,4.17002E-1,4.040001E0,2.02005E0,4.177702E0,8.482933E1,-1.12122454E-1,9.4556116E-2,-6.383431E-2,8.8122174E-2,-1.1613781E-3,6.526195E-2,-3.8522355E-2],"split_indices":[3,5,34,2,34,33,0,0,0,0,0,0,0],"split_type":[0,0,0,0,0,0,0,0,0,0,0,0,0],"sum_hessian":[2.4547453E2,2.0276968E2,4.2704845E1,1.0256572E2,1.0020397E2,2.4970384E0,4.0207806E1,2.793942E1,7.46263E1,7.967156E1,2.0532412E1,1.1218891E0,1.3751493E0],"tree_param":{"num_deleted":"0","num_feature":"39","num_nodes":"13","size_leaf_vector":"1"}},{"base_weights":[6.2958024E-2,5.944266E-1,-3.6925632E-1,-8.7635316E-2,9.328508E-1,9.69339E-1,-5.979021E-1,1.0181532E-1,-1.0709571E-1,3.3341985E-2,1.0584028E-1,1.2186896E-1,-9.384801E-2,-1.8544666E-2,-1.3982666E-1],"categories":[],"categories_nodes":[],"categories_segments":[],"categories_sizes":[],"default_left":[0,0,0,0,0,0,0,0,0,0,0,0,0,0,0],"id":19,"left_children":[1,3,5,7,9,11,13,-1,-1,-1,-1,-1,-1,-1,-1],"loss_changes":[5.5679527E1,2.5165226E1,4.152133E1,4.126979E1,5.1197205E0,1.0609072E1,3.7661457E1,0E0,0E0,0E0,0E0,0E0,0E0,0E0,0E0],"parents":[2147483647,0,0,1,1,2,2,3,3,4,4,5,5,6,6],"right_children":[2,4,6,8,10,12,14,-1,-1,-1,-1,-1,-1,-1,-1],"split_conditions":[1.95475E-1,1.7078572E2,2.179198E0,5.525272E0,1.3E1,2E1,4.148419E0,1.0181532E-1,-1.0709571E-1,3.3341985E-2,1.0584028E-1,1.2186896E-1,-9.384801E-2,-1.8544666E-2,-1.3982666E-1],"split_indices":[35,27,2,8,37,37,14,0,0,0,0,0,0,0,0],"split_type":[0,0,0,0,0,0,0,0,0,0,0,0,0,0,0],"sum_hessian":[2.4043674E2,1.076682E2,1.3276854E2,3.5951805E1,7.171639E1,1.8897078E1,1.1387147E2,1.6905455E1,1.9046349E1,1.3052873E1,5.866352E1,1.7032196E1,1.8648827E0,7.5958916E1,3.791255E1],"tree_param":{"num_deleted":"0","num_feature":"39","num_nodes":"15","size_leaf_vector":"1"}},{"base_weights":[3.781949E-2,2.4377973E-1,-1.0393221E0,7.677498E-1,-8.205008E-2,-9.350467E-2,-1.091254E-1,8.4638886E-2,-1.15048386E-1,-4.9526207E-2,3.3597898E-2,8.9458795E-3,-2.3267722E-2],"categories":[],"categories_nodes":[],"categories_segments":[],"categories_sizes":[],"default_left":[0,0,0,0,0,0,0,0,0,0,0,0,0],"id":20,"left_children":[1,3,5,7,9,11,-1,-1,-1,-1,-1,-1,-1],"loss_changes":[5.228341E1,3.381426E1,1.7564011E0,1.242255E1,2.1377779E1,9.8810926E-2,0E0,0E0,0E0,0E0,0E0,0E0,0E0],"parents":[2147483647,0,0,1,1,2,2,3,3,4,4,5,5],"right_children":[2,4,6,8,10,12,-1,-1,-1,-1,-1,-1,-1],"split_conditions":[4.0861E0,9E0,4.013725E0,9.064562E1,2.1350576E1,3.98576E-1,-1.091254E-1,8.4638886E-2,-1.15048386E-1,-4.9526207E-2,3.3597898E-2,8.9458795E-3,-2.3267722E-2],"split_indices":[3,23,34,33,7,6,0,0,0,0,0,0,0],"split_type":[0,0,0,0,0,0,0,0,0,0,0,0,0],"sum_hessian":[2.335298E2,1.9669368E2,3.683612E1,7.489616E1,1.2179752E2,2.063048E0,3.477307E1,7.248342E1,2.4127321E0,6.1158756E1,6.0638763E1,1.0456249E0,1.0174232E0],"tree_param":{"num_deleted":"0","num_feature":"39","num_nodes":"13","size_leaf_vector":"1"}},{"base_weights":[-2.5590092E-2,2.0186561E-1,-8.712978E-1,-7.2371435E-1,3.810879E-1,9.0403974E-2,-1.1140907E0,-1.2591839E-1,7.886386E-2,1.6698679E-3,7.6802276E-2,3.651191E-2,-1.169286E-1],"categories":[],"categories_nodes":[],"categories_segments":[],"categories_sizes":[],"default_left":[0,0,0,0,0,0,0,0,0,0,0,0,0],"id":21,"left_children":[1,3,5,7,9,-1,11,-1,-1,-1,-1,-1,-1],"loss_changes":[4.2079655E1,2.8887619E1,2.098967E1,2.393107E1,2.0453348E1,0E0,3.7931404E0,0E0,0E0,0E0,0E0,0E0,0E0],"parents":[2147483647,0,0,1,1,2,2,3,3,4,4,6,6],"right_children":[2,4,6,8,10,-1,12,-1,-1,-1,-1,-1,-1],"split_conditions":[5.118075E0,5.752842E0,2.571071E0,1.14692E0,2.2033184E1,9.0403974E-2,8.8588E-2,-1.2591839E-1,7.886386E-2,1.6698679E-3,7.6802276E-2,3.651191E-2,-1.169286E-1],"split_indices":[34,13,36,17,7,0,26,0,0,0,0,0,0],"split_type":[0,0,0,0,0,0,0,0,0,0,0,0,0],"sum_hessian":[2.1683917E2,1.7148032E2,4.5358856E1,2.732489E1,1.4415543E2,5.129282E0,4.0229576E1,2.0303541E1,7.021349E0,7.477784E1,6.937759E1,1.2451489E0,3.8984425E1],"tree_param":{"num_deleted":"0","num_feature":"39","num_nodes":"13","size_leaf_vector":"1"}},{"base_weights":[2.8481748E-2,2.0552404E-1,-9.769224E-1,-7.227295E-2,9.060733E-1,5.0646547E-2,-1.06392205E-1,2.7575364E-2,-7.437738E-2,-5.944853E-2,9.6086465E-2,6.8437696E-2,-7.156018E-2],"categories":[],"categories_nodes":[],"categories_segments":[],"categories_sizes":[],"default_left":[0,0,0,0,0,0,0,0,0,0,0,0,0],"id":22,"left_children":[1,3,5,7,9,11,-1,-1,-1,-1,-1,-1,-1],"loss_changes":[3.7756264E1,3.513878E1,2.8935204E0,3.0580431E1,4.784664E0,2.1572497E0,0E0,0E0,0E0,0E0,0E0,0E0,0E0],"parents":[2147483647,0,0,1,1,2,2,3,3,4,4,5,5],"right_children":[2,4,6,8,10,12,-1,-1,-1,-1,-1,-1,-1],"split_conditions":[4.0861E0,5.32288E-1,4.040001E0,4.239169E0,1.04783E-1,6.5357506E1,-1.06392205E-1,2.7575364E-2,-7.437738E-2,-5.944853E-2,9.6086465E-2,6.8437696E-2,-7.156018E-2],"split_indices":[3,5,34,36,20,21,0,0,0,0,0,0,0],"split_type":[0,0,0,0,0,0,0,0,0,0,0,0,0],"sum_hessian":[2.0998697E2,1.7922305E2,3.0763927E1,1.2897565E2,5.0247395E1,2.43395E0,2.8329977E1,8.53366E1,4.363905E1,1.4231085E0,4.8824284E1,1.3906507E0,1.0432992E0],"tree_param":{"num_deleted":"0","num_feature":"39","num_nodes":"13","size_leaf_vector":"1"}},{"base_weights":[-1.9700816E-3,1.6352081E-1,-1.0069485E0,7.201011E-1,-1.4975241E-1,2.5748769E-2,-1.0630473E-1,7.98664E-2,-1.05787836E-1,-6.966322E-2,3.7509695E-2],"categories":[],"categories_nodes":[],"categories_segments":[],"categories_sizes":[],"default_left":[0,0,0,0,0,0,0,0,0,0,0],"id":23,"left_children":[1,3,5,7,9,-1,-1,-1,-1,-1,-1],"loss_changes":[3.4646957E1,3.1297234E1,2.3629913E0,9.867588E0,3.3351093E1,0E0,0E0,0E0,0E0,0E0,0E0],"parents":[2147483647,0,0,1,1,2,2,3,3,4,4],"right_children":[2,4,6,8,10,-1,-1,-1,-1,-1,-1],"split_conditions":[4.0861E0,9E0,4.36668E-1,9.064562E1,3.78091E-1,2.5748769E-2,-1.0630473E-1,7.98664E-2,-1.05787836E-1,-6.966322E-2,3.7509695E-2],"split_indices":[3,23,38,33,5,0,0,0,0,0,0],"split_type":[0,0,0,0,0,0,0,0,0,0,0],"sum_hessian":[2.0633156E2,1.7787756E2,2.8454004E1,6.3593983E1,1.1428358E2,1.0562742E0,2.739773E1,6.143038E1,2.1636E0,5.5806896E1,5.847668E1],"tree_param":{"num_deleted":"0","num_feature":"39","num_nodes":"11","size_leaf_vector":"1"}},{"base_weights":[4.4827655E-2,2.0081784E-1,-1.0252186E0,4.8536065E-1,-3.2254037E-1,-1.587276E-2,-1.0541077E-1,7.7907525E-2,2.0561868E-2,-1.22971475E-1,4.312545E-2],"categories":[],"categories_nodes":[],"categories_segments":[],"categories_sizes":[],"default_left":[0,0,0,0,0,0,0,0,0,0,0],"id":24,"left_children":[1,3,5,7,9,-1,-1,-1,-1,-1,-1],"loss_changes":[3.453365E1,2.7010624E1,4.917755E-1,9.470758E0,4.437185E1,0E0,0E0,0E0,0E0,0E0,0E0],"parents":[2147483647,0,0,1,1,2,2,3,3,4,4],"right_children":[2,4,6,8,10,-1,-1,-1,-1,-1,-1],"split_conditions":[4.049929E0,1.68994E-1,4.77472E-1,5.9551E-2,1.241E-1,-1.587276E-2,-1.0541077E-1,7.7907525E-2,2.0561868E-2,-1.22971475E-1,4.312545E-2],"split_indices":[3,15,38,16,16,0,0,0,0,0,0],"split_type":[0,0,0,0,0,0,0,0,0,0,0],"sum_hessian":[2.0465807E2,1.7932814E2,2.5329931E1,1.16215775E2,6.3112354E1,1.026797E0,2.4303135E1,5.5821316E1,6.0394463E1,2.8355642E1,3.4756714E1],"tree_param":{"num_deleted":"0","num_feature":"39","num_nodes":"11","size_leaf_vector":"1"}},{"base_weights":[2.9607391E-2,1.7640997E-1,-1.0091835E0,-6.198026E-2,8.683612E-1,-1.5559876E-2,-1.03997014E-1,2.089757E-2,-8.571274E-2,9.419452E-2,-1.6658122E-2],"categories":[],"categories_nodes":[],"categories_segments":[],"categories_sizes":[],"default_left":[0,0,0,0,0,0,0,0,0,0,0],"id":25,"left_children":[1,3,5,7,9,-1,-1,-1,-1,-1,-1],"loss_changes":[3.0497948E1,2.8929977E1,4.89048E-1,2.843163E1,3.5780106E0,0E0,0E0,0E0,0E0,0E0,0E0],"parents":[2147483647,0,0,1,1,2,2,3,3,4,4],"right_children":[2,4,6,8,10,-1,-1,-1,-1,-1,-1],"split_conditions":[4.0861E0,5.32288E-1,4.92773E-1,1.87135E-1,9.064562E1,-1.5559876E-2,-1.03997014E-1,2.089757E-2,-8.571274E-2,9.419452E-2,-1.6658122E-2],"split_indices":[3,5,38,15,33,0,0,0,0,0,0],"split_type":[0,0,0,0,0,0,0,0,0,0,0],"sum_hessian":[1.9782281E2,1.7405537E2,2.3767439E1,1.3013266E2,4.3922726E1,1.0381441E0,2.2729294E1,9.760855E1,3.25241E1,4.1091026E1,2.8316982E0],"tree_param":{"num_deleted":"0","num_feature":"39","num_nodes":"11","size_leaf_vector":"1"}},{"base_weights":[6.206858E-2,2.0063847E-1,-9.263439E-1,-1.6639968E-2,8.2161087E-1,8.076614E-3,-1.0206975E-1,2.0377787E-2,-1.0785427E-1,9.2549235E-2,-5.355239E-2],"categories":[],"categories_nodes":[],"categories_segments":[],"categories_sizes":[],"default_left":[0,0,0,0,0,0,0,0,0,0,0],"id":26,"left_children":[1,3,5,7,9,-1,-1,-1,-1,-1,-1],"loss_changes":[2.6003E1,2.2430027E1,2.301714E0,2.9256714E1,6.5696983E0,0E0,0E0,0E0,0E0,0E0,0E0],"parents":[2147483647,0,0,1,1,2,2,3,3,4,4],"right_children":[2,4,6,8,10,-1,-1,-1,-1,-1,-1],"split_conditions":[4.0861E0,5.25922E-1,4.040001E0,6.283924E0,9.064562E1,8.076614E-3,-1.0206975E-1,2.0377787E-2,-1.0785427E-1,9.2549235E-2,-5.355239E-2],"split_indices":[3,5,34,36,33,0,0,0,0,0,0],"split_type":[0,0,0,0,0,0,0,0,0,0,0],"sum_hessian":[1.8749551E2,1.6514072E2,2.2354794E1,1.23056435E2,4.2084286E1,1.9272921E0,2.0427502E1,1.0257349E2,2.048295E1,3.938744E1,2.6968467E0],"tree_param":{"num_deleted":"0","num_feature":"39","num_nodes":"11","size_leaf_vector":"1"}},{"base_weights":[-1.6910741E-2,3.676596E-1,-3.337463E-1,-5.9364265E-1,7.1999377E-1,1.1499142E-1,-5.302687E-1,8.043627E-2,-1.5345244E-1,8.4807E-2,-2.4643509E-2,-1.1101644E-2,-1.3766466E-1],"categories":[],"categories_nodes":[],"categories_segments":[],"categories_sizes":[],"default_left":[0,0,0,0,0,0,0,0,0,0,0,0,0],"id":27,"left_children":[1,3,5,7,9,-1,11,-1,-1,-1,-1,-1,-1],"loss_changes":[2.2346937E1,2.84945E1,2.9921421E1,3.1190443E1,7.7708797E0,0E0,3.1590094E1,0E0,0E0,0E0,0E0,0E0,0E0],"parents":[2147483647,0,0,1,1,2,2,3,3,4,4,6,6],"right_children":[2,4,6,8,10,-1,12,-1,-1,-1,-1,-1,-1],"split_conditions":[1.95475E-1,3.22069E-1,1.94343E0,2.457026E0,1.6E1,1.1499142E-1,4.148419E0,8.043627E-2,-1.5345244E-1,8.4807E-2,-2.4643509E-2,-1.1101644E-2,-1.3766466E-1],"split_indices":[35,5,2,34,23,0,14,0,0,0,0,0,0],"split_type":[0,0,0,0,0,0,0,0,0,0,0,0,0],"sum_hessian":[1.8139674E2,8.186717E1,9.9529564E1,2.1774132E1,6.0093037E1,1.1074031E1,8.8455536E1,8.817614E0,1.2956518E1,5.316924E1,6.923797E0,5.9910236E1,2.85453E1],"tree_param":{"num_deleted":"0","num_feature":"39","num_nodes":"13","size_leaf_vector":"1"}},{"base_weights":[-7.963953E-3,8.8525087E-1,-1.7096937E-1,-1.2276405E-1,1.0550785E0,5.2001435E-1,-4.044902E-1,1.2012141E-1,1.8424192E-2,-1.162347E-1,7.2230585E-2,-1.6504692E-1,-2.6572695E-2],"categories":[],"categories_nodes":[],"categories_segments":[],"categories_sizes":[],"default_left":[0,0,0,0,0,0,0,0,0,0,0,0,0],"id":28,"left_children":[1,3,5,-1,7,9,11,-1,-1,-1,-1,-1,-1],"loss_changes":[2.5019163E1,1.0811628E1,2.3651943E1,0E0,2.9710732E0,1.3476888E1,1.8431856E1,0E0,0E0,0E0,0E0,0E0,0E0],"parents":[2147483647,0,0,1,1,2,2,4,4,5,5,6,6],"right_children":[2,4,6,-1,8,10,12,-1,-1,-1,-1,-1,-1],"split_conditions":[2.410467E0,5.11184E-1,4.96923E-1,-1.2276405E-1,3.671318E1,5.525025E0,2.042032E0,1.2012141E-1,1.8424192E-2,-1.162347E-1,7.2230585E-2,-1.6504692E-1,-2.6572695E-2],"split_indices":[34,19,19,0,22,13,3,0,0,0,0,0,0],"split_type":[0,0,0,0,0,0,0,0,0,0,0,0,0],"sum_hessian":[1.6979675E2,2.5520761E1,1.4427599E2,1.4352691E0,2.4085493E1,3.613282E1,1.0814317E2,2.029962E1,3.7858727E0,3.3689535E0,3.2763866E1,9.745201E0,9.839797E1],"tree_param":{"num_deleted":"0","num_feature":"39","num_nodes":"13","size_leaf_vector":"1"}},{"base_weights":[1.4527409E-2,8.383035E-1,-1.2679887E-1,1.1287282E-1,-2.3998635E-1,-1.3293048E0,-5.4603214E-3,8.718645E-2,-1.5112947E-1,1.873803E-2,-1.8533592E-1,-1.10372484E-1,1.3778992E-2],"categories":[],"categories_nodes":[],"categories_segments":[],"categories_sizes":[],"default_left":[0,0,0,0,0,0,0,0,0,0,0,0,0],"id":29,"left_children":[1,3,5,-1,7,9,11,-1,-1,-1,-1,-1,-1],"loss_changes":[2.047152E1,8.333893E0,2.1905548E1,0E0,1.0205605E1,1.1284719E1,2.1771782E1,0E0,0E0,0E0,0E0,0E0,0E0],"parents":[2147483647,0,0,1,1,2,2,4,4,5,5,6,6],"right_children":[2,4,6,-1,8,10,12,-1,-1,-1,-1,-1,-1],"split_conditions":[2.410467E0,3.671318E1,2.042032E0,1.1287282E-1,9E0,1.13924E-1,5.658759E0,8.718645E-2,-1.5112947E-1,1.873803E-2,-1.8533592E-1,-1.10372484E-1,1.3778992E-2],"split_indices":[34,22,3,0,23,15,13,0,0,0,0,0,0],"split_type":[0,0,0,0,0,0,0,0,0,0,0,0,0],"sum_hessian":[1.7392708E2,2.4747105E1,1.4917998E2,1.9459217E1,5.2878866E0,1.27608E1,1.3641917E2,2.9884608E0,2.2994258E0,3.4419036E0,9.318897E0,1.4966883E1,1.21452286E2],"tree_param":{"num_deleted":"0","num_feature":"39","num_nodes":"13","size_leaf_vector":"1"}},{"base_weights":[-9.58314E-3,1.1108979E-1,-9.4329345E-1,-1.0200378E-1,8.103641E-1,1.9735456E-2,-1.0161531E-1,4.893277E-3,-1.2225002E-1,1.0040466E-1,1.8108403E-2],"categories":[],"categories_nodes":[],"categories_segments":[],"categories_sizes":[],"default_left":[0,0,0,0,0,0,0,0,0,0,0],"id":30,"left_children":[1,3,5,7,9,-1,-1,-1,-1,-1,-1],"loss_changes":[1.9684336E1,2.3146399E1,1.8621387E0,2.0272964E1,4.237833E0,0E0,0E0,0E0,0E0,0E0,0E0],"parents":[2147483647,0,0,1,1,2,2,3,3,4,4],"right_children":[2,4,6,8,10,-1,-1,-1,-1,-1,-1],"split_conditions":[4.049929E0,5.32288E-1,4.48716E-1,3.221794E0,5.39537E-1,1.9735456E-2,-1.0161531E-1,4.893277E-3,-1.2225002E-1,1.0040466E-1,1.8108403E-2],"split_indices":[3,5,38,3,6,0,0,0,0,0,0],"split_type":[0,0,0,0,0,0,0,0,0,0,0],"sum_hessian":[1.7277231E2,1.5377892E2,1.8993397E1,1.1851679E2,3.5262123E1,1.037783E0,1.7955614E1,1.0529002E2,1.322677E1,2.650787E1,8.7542515E0],"tree_param":{"num_deleted":"0","num_feature":"39","num_nodes":"11","size_leaf_vector":"1"}},{"base_weights":[-1.108383E-2,3.908594E-1,-3.4895518E-1,-2.9158318E-1,8.987165E-1,4.3251628E-1,-7.101513E-1,8.2543366E-2,-1.1430112E-1,5.2810557E-2,1.0327672E-1,-1.1855998E-1,7.317724E-2,8.285283E-3,-9.187711E-2],"categories":[],"categories_nodes":[],"categories_segments":[],"categories_sizes":[],"default_left":[0,0,0,0,0,0,0,0,0,0,0,0,0,0,0],"id":31,"left_children":[1,3,5,7,9,11,13,-1,-1,-1,-1,-1,-1,-1,-1],"loss_changes":[2.3045826E1,2.7126947E1,2.6326267E1,3.3115166E1,1.6746368E0,1.5278055E1,1.0568174E1,0E0,0E0,0E0,0E0,0E0,0E0,0E0,0E0],"parents":[2147483647,0,0,1,1,2,2,3,3,4,4,5,5,6,6],"right_children":[2,4,6,8,10,12,14,-1,-1,-1,-1,-1,-1,-1,-1],"split_conditions":[1.95475E-1,1.7742857E2,5.23722E-1,5.525272E0,2E1,5.752842E0,1.6820414E1,8.2543366E-2,-1.1430112E-1,5.2810557E-2,1.0327672E-1,-1.1855998E-1,7.317724E-2,8.285283E-3,-9.187711E-2],"split_indices":[35,27,19,8,37,13,22,0,0,0,0,0,0,0,0],"split_type":[0,0,0,0,0,0,0,0,0,0,0,0,0,0,0],"sum_hessian":[1.6769345E2,7.6513535E1,9.1179924E1,3.282721E1,4.3686325E1,2.875947E1,6.2420452E1,1.42122345E1,1.8614973E1,1.291625E1,3.0770075E1,4.0263987E0,2.473307E1,1.3126589E1,4.929386E1],"tree_param":{"num_deleted":"0","num_feature":"39","num_nodes":"15","size_leaf_vector":"1"}},{"base_weights":[6.571525E-3,-3.3177453E-1,2.8047156E-1,3.5598326E-1,-7.548364E-1,-9.7407E-1,3.700252E-1,5.85786E-2,-8.276429E-2,9.732809E-2,-9.2670925E-2,5.657813E-2,-1.8024054E-1,5.0003547E-2,-4.81508E-2],"categories":[],"categories_nodes":[],"categories_segments":[],"categories_sizes":[],"default_left":[0,0,0,0,0,0,0,0,0,0,0,0,0,0,0],"id":32,"left_children":[1,3,5,7,9,11,13,-1,-1,-1,-1,-1,-1,-1,-1],"loss_changes":[1.5017831E1,2.1365322E1,1.0420342E1,8.180752E0,1.4330683E1,8.980551E0,9.573527E0,0E0,0E0,0E0,0E0,0E0,0E0,0E0,0E0],"parents":[2147483647,0,0,1,1,2,2,3,3,4,4,5,5,6,6],"right_children":[2,4,6,8,10,12,14,-1,-1,-1,-1,-1,-1,-1,-1],"split_conditions":[2.791E-2,5.23722E-1,9.81835E0,4.0703533E1,1.101E3,3.161053E0,1.6E1,5.85786E-2,-8.276429E-2,9.732809E-2,-9.2670925E-2,5.657813E-2,-1.8024054E-1,5.0003547E-2,-4.81508E-2],"split_indices":[9,19,28,28,0,8,23,0,0,0,0,0,0,0,0],"split_type":[0,0,0,0,0,0,0,0,0,0,0,0,0,0,0],"sum_hessian":[1.6004774E2,7.15059E1,8.854184E1,2.7293808E1,4.4212093E1,5.2412405E0,8.33006E1,2.3279207E1,4.0146E0,3.5776234E0,4.0634468E1,1.9441283E0,3.2971122E0,7.262513E1,1.0675467E1],"tree_param":{"num_deleted":"0","num_feature":"39","num_nodes":"15","size_leaf_vector":"1"}},{"base_weights":[-2.2113511E-2,7.306856E-1,-1.6587089E-1,1.0921732E0,-2.3243137E-1,-7.06414E-1,1.2252251E-1,1.1732739E-1,-1.5025834E-2,8.734224E-2,-1.18487835E-1,6.55609E-2,-1.03265606E-1,5.6411345E-2,-6.9584645E-2],"categories":[],"categories_nodes":[],"categories_segments":[],"categories_sizes":[],"default_left":[0,0,0,0,0,0,0,0,0,0,0,0,0,0,0],"id":33,"left_children":[1,3,5,7,9,11,13,-1,-1,-1,-1,-1,-1,-1,-1],"loss_changes":[1.7474508E1,9.269812E0,2.1202518E1,2.0912457E0,9.346981E0,2.1683048E1,3.2621304E1,0E0,0E0,0E0,0E0,0E0,0E0,0E0,0E0],"parents":[2147483647,0,0,1,1,2,2,3,3,4,4,5,5,6,6],"right_children":[2,4,6,8,10,12,14,-1,-1,-1,-1,-1,-1,-1,-1],"split_conditions":[2.179198E0,1.9E1,3.78091E-1,8.5585E-2,1.692565E0,2.410467E0,4.177702E0,1.1732739E-1,-1.5025834E-2,8.734224E-2,-1.18487835E-1,6.55609E-2,-1.03265606E-1,5.6411345E-2,-6.9584645E-2],"split_indices":[2,37,5,16,2,34,34,0,0,0,0,0,0,0,0],"split_type":[0,0,0,0,0,0,0,0,0,0,0,0,0,0,0],"sum_hessian":[1.593515E2,2.4896399E1,1.3445511E2,1.8004684E1,6.891714E0,4.6273685E1,8.818142E1,1.6953682E1,1.0510031E0,3.2274277E0,3.6642864E0,8.746884E0,3.7526802E1,5.747738E1,3.0704042E1],"tree_param":{"num_deleted":"0","num_feature":"39","num_nodes":"15","size_leaf_vector":"1"}},{"base_weights":[7.598628E-2,1.8358916E-1,-8.5752624E-1,7.0540345E-1,-9.1356575E-2,8.989441E-3,-9.801077E-2,9.144514E-2,-5.635831E-3,-8.265495E-2,2.6044026E-2],"categories":[],"categories_nodes":[],"categories_segments":[],"categories_sizes":[],"default_left":[0,0,0,0,0,0,0,0,0,0,0],"id":34,"left_children":[1,3,5,7,9,-1,-1,-1,-1,-1,-1],"loss_changes":[1.5793422E1,2.0207293E1,1.9770031E0,7.784916E0,2.422577E1,0E0,0E0,0E0,0E0,0E0,0E0],"parents":[2147483647,0,0,1,1,2,2,3,3,4,4],"right_children":[2,4,6,8,10,-1,-1,-1,-1,-1,-1],"split_conditions":[4.0861E0,9E0,6.2028187E1,3.206187E0,2.395489E0,8.989441E-3,-9.801077E-2,9.144514E-2,-5.635831E-3,-8.265495E-2,2.6044026E-2],"split_indices":[3,23,21,3,3,0,0,0,0,0,0],"split_type":[0,0,0,0,0,0,0,0,0,0,0],"sum_hessian":[1.5466154E2,1.3939705E2,1.5264498E1,4.7562836E1,9.183421E1,1.779278E0,1.3485219E1,3.7163677E1,1.0399156E1,2.9284758E1,6.2549454E1],"tree_param":{"num_deleted":"0","num_feature":"39","num_nodes":"11","size_leaf_vector":"1"}},{"base_weights":[-3.3632956E-2,7.13422E-1,-1.646977E-1,-1.09131195E-1,8.7985957E-1,5.132401E-1,-3.6830103E-1,-3.2841396E-2,9.64592E-2,-9.933636E-2,6.858395E-2,-5.7847746E-2,4.6274997E-2],"categories":[],"categories_nodes":[],"categories_segments":[],"categories_sizes":[],"default_left":[0,0,0,0,0,0,0,0,0,0,0,0,0],"id":35,"left_children":[1,3,5,-1,7,9,11,-1,-1,-1,-1,-1,-1],"loss_changes":[1.5180367E1,7.9136295E0,1.8366371E1,0E0,2.5433578E0,8.699197E0,1.8058846E1,0E0,0E0,0E0,0E0,0E0,0E0],"parents":[2147483647,0,0,1,1,2,2,4,4,5,5,6,6],"right_children":[2,4,6,-1,8,10,12,-1,-1,-1,-1,-1,-1],"split_conditions":[2.457026E0,5.11184E-1,4.87776E-1,-1.09131195E-1,7.090909E1,5.525025E0,1.306589E0,-3.2841396E-2,9.64592E-2,-9.933636E-2,6.858395E-2,-5.7847746E-2,4.6274997E-2],"split_indices":[34,19,19,0,27,13,18,0,0,0,0,0,0],"split_type":[0,0,0,0,0,0,0,0,0,0,0,0,0],"sum_hessian":[1.5283998E2,2.2149118E1,1.3069087E2,1.4009792E0,2.0748138E1,2.9833502E1,1.0085737E2,1.1711935E0,1.9576946E1,2.5776985E0,2.7255802E1,8.0741425E1,2.011594E1],"tree_param":{"num_deleted":"0","num_feature":"39","num_nodes":"13","size_leaf_vector":"1"}},{"base_weights":[6.316233E-2,1.5490672E-1,-8.6432433E-1,-4.466964E-2,7.747393E-1,1.8343825E-2,-9.625484E-2,2.356723E-2,-5.397099E-2,-5.9925992E-2,8.8540144E-2],"categories":[],"categories_nodes":[],"categories_segments":[],"categories_sizes":[],"default_left":[0,0,0,0,0,0,0,0,0,0,0],"id":36,"left_children":[1,3,5,7,9,-1,-1,-1,-1,-1,-1],"loss_changes":[1.2786291E1,1.6877537E1,1.5696516E0,1.4551837E1,5.5811653E0,0E0,0E0,0E0,0E0,0E0,0E0],"parents":[2147483647,0,0,1,1,2,2,3,3,4,4],"right_children":[2,4,6,8,10,-1,-1,-1,-1,-1,-1],"split_conditions":[4.289869E0,5.25922E-1,3.483E-3,1.68994E-1,2.240684E0,1.8343825E-2,-9.625484E-2,2.356723E-2,-5.397099E-2,-5.9925992E-2,8.8540144E-2],"split_indices":[3,5,10,15,3,0,0,0,0,0,0],"split_type":[0,0,0,0,0,0,0,0,0,0,0],"sum_hessian":[1.4769136E2,1.3515517E2,1.2536191E1,1.02938515E2,3.2216652E1,1.000135E0,1.1536056E1,6.605527E1,3.688325E1,2.0722327E0,3.0144419E1],"tree_param":{"num_deleted":"0","num_feature":"39","num_nodes":"11","size_leaf_vector":"1"}},{"base_weights":[-4.0499583E-2,2.535758E-1,-2.8465298E-1,-1.6506386E-1,7.739938E-1,-5.0708133E-1,5.713738E-1,4.5279924E-2,-1.24584354E-1,8.931829E-2,-6.0617376E-2,7.536333E-2,-6.97551E-2,9.2388265E-2,-7.930156E-2],"categories":[],"categories_nodes":[],"categories_segments":[],"categories_sizes":[],"default_left":[0,0,0,0,0,0,0,0,0,0,0,0,0,0,0],"id":37,"left_children":[1,3,5,7,9,11,13,-1,-1,-1,-1,-1,-1,-1,-1],"loss_changes":[1.0384655E1,1.4437805E1,1.5321505E1,2.5421875E1,5.387207E0,1.5700289E1,8.790012E0,0E0,0E0,0E0,0E0,0E0,0E0,0E0,0E0],"parents":[2147483647,0,0,1,1,2,2,3,3,4,4,5,5,6,6],"right_children":[2,4,6,8,10,12,14,-1,-1,-1,-1,-1,-1,-1,-1],"split_conditions":[2.6669132E1,3.37941E-1,2.3027216E1,1.9E1,3.853859E0,6.0045147E1,4.289869E0,4.5279924E-2,-1.24584354E-1,8.931829E-2,-6.0617376E-2,7.536333E-2,-6.97551E-2,9.2388265E-2,-7.930156E-2],"split_indices":[28,5,32,37,3,33,3,0,0,0,0,0,0,0,0],"split_type":[0,0,0,0,0,0,0,0,0,0,0,0,0,0,0],"sum_hessian":[1.4262877E2,6.4682304E1,7.794647E1,3.622481E1,2.8457489E1,6.219379E1,1.575268E1,2.3418121E1,1.2806691E1,2.65201E1,1.9373897E0,7.774937E0,5.4418854E1,1.2774954E1,2.977726E0],"tree_param":{"num_deleted":"0","num_feature":"39","num_nodes":"15","size_leaf_vector":"1"}},{"base_weights":[1.771632E-2,1.0517513E-1,-9.0582997E-1,-7.867568E-2,7.693649E-1,-9.470444E-2,-2.18942E-2,1.6395574E-2,-7.6261535E-2,9.921824E-2,-1.0594814E-2],"categories":[],"categories_nodes":[],"categories_segments":[],"categories_sizes":[],"default_left":[0,0,0,0,0,0,0,0,0,0,0],"id":38,"left_children":[1,3,5,7,9,-1,-1,-1,-1,-1,-1],"loss_changes":[1.1538596E1,1.597343E1,1.4255333E-1,1.7212412E1,5.633236E0,0E0,0E0,0E0,0E0,0E0,0E0],"parents":[2147483647,0,0,1,1,2,2,3,3,4,4],"right_children":[2,4,6,8,10,-1,-1,-1,-1,-1,-1],"split_conditions":[4.0861E0,5.40806E-1,3.0605E-2,1.83315E-1,3.9120144E1,-9.470444E-2,-2.18942E-2,1.6395574E-2,-7.6261535E-2,9.921824E-2,-1.0594814E-2],"split_indices":[3,5,11,15,8,0,0,0,0,0,0],"split_type":[0,0,0,0,0,0,0,0,0,0,0],"sum_hessian":[1.4067395E2,1.2931416E2,1.135979E1,1.01969955E2,2.734421E1,1.0359458E1,1.0003322E0,7.5829346E1,2.6140608E1,2.1689474E1,5.6547365E0],"tree_param":{"num_deleted":"0","num_feature":"39","num_nodes":"11","size_leaf_vector":"1"}},{"base_weights":[4.1950356E-2,7.569731E-1,-7.529246E-2,1.0958349E-1,-3.6191747E-1,-1.0132781E0,7.73729E-2,7.6839246E-2,-1.3668358E-1,4.8397124E-2,-1.2865594E-1,-1.203713E-1,1.9885758E-2],"categories":[],"categories_nodes":[],"categories_segments":[],"categories_sizes":[],"default_left":[0,0,0,0,0,0,0,0,0,0,0,0,0],"id":39,"left_children":[1,3,5,-1,7,9,11,-1,-1,-1,-1,-1,-1],"loss_changes":[1.1480649E1,7.709262E0,1.6973259E1,0E0,6.996649E0,7.4090385E0,1.6175629E1,0E0,0E0,0E0,0E0,0E0,0E0],"parents":[2147483647,0,0,1,1,2,2,4,4,5,5,6,6],"right_children":[2,4,6,-1,8,10,12,-1,-1,-1,-1,-1,-1],"split_conditions":[2.410467E0,3.671318E1,2.119835E0,1.0958349E-1,9E0,7E0,5.411567E0,7.6839246E-2,-1.3668358E-1,4.8397124E-2,-1.2865594E-1,-1.203713E-1,1.9885758E-2],"split_indices":[34,22,3,0,23,23,13,0,0,0,0,0,0],"split_type":[0,0,0,0,0,0,0,0,0,0,0,0,0],"sum_hessian":[1.352696E2,1.8287024E1,1.1698258E2,1.4051929E1,4.2350936E0,1.5585715E1,1.0139687E2,2.1039667E0,2.1311269E0,2.2866561E0,1.3299059E1,8.010961E0,9.338591E1],"tree_param":{"num_deleted":"0","num_feature":"39","num_nodes":"13","size_leaf_vector":"1"}},{"base_weights":[-6.9745526E-2,3.2673332E-1,-3.0800468E-1,-8.559863E-1,7.314052E-1,-4.15036E-2,-1.2422479E0,-1.2265827E-1,2.703695E-2,-6.8721555E-2,8.1371695E-2,1.1918387E-2,-1.2392416E-1,-1.81262E-1,6.249084E-3],"categories":[],"categories_nodes":[],"categories_segments":[],"categories_sizes":[],"default_left":[0,0,0,0,0,0,0,0,0,0,0,0,0,0,0],"id":40,"left_children":[1,3,5,7,9,11,13,-1,-1,-1,-1,-1,-1,-1,-1],"loss_changes":[1.2528901E1,2.4494692E1,2.0537535E1,5.8308296E0,4.9609528E0,1.2729972E1,1.3746222E1,0E0,0E0,0E0,0E0,0E0,0E0,0E0,0E0],"parents":[2147483647,0,0,1,1,2,2,3,3,4,4,5,5,6,6],"right_children":[2,4,6,8,10,12,14,-1,-1,-1,-1,-1,-1,-1,-1],"split_conditions":[1.71737E-1,3.26705E-1,4.53168E-1,6.88887E-1,2.1085E-2,1.95504E0,2.5649858E1,-1.2265827E-1,2.703695E-2,-6.8721555E-2,8.1371695E-2,1.1918387E-2,-1.2392416E-1,-1.81262E-1,6.249084E-3],"split_indices":[35,5,26,17,11,25,32,0,0,0,0,0,0,0,0],"split_type":[0,0,0,0,0,0,0,0,0,0,0,0,0,0,0],"sum_hessian":[1.3056517E2,4.8870354E1,8.169481E1,1.2174151E1,3.6696205E1,6.437555E1,1.7319263E1,9.093275E0,3.0808759E0,1.6094157E0,3.508679E1,5.755457E1,6.8209777E0,1.1780228E1,5.5390353E0],"tree_param":{"num_deleted":"0","num_feature":"39","num_nodes":"15","size_leaf_vector":"1"}},{"base_weights":[-1.3440673E-2,9.7409666E-1,-1.05285406E-1,1.5703095E-2,1.04197204E-1,-4.4284803E-3,-9.964738E-2,-1.9776536E-2,6.004095E-2],"categories":[],"categories_nodes":[],"categories_segments":[],"categories_sizes":[],"default_left":[0,0,0,0,0,0,0,0,0],"id":41,"left_children":[1,3,5,-1,-1,7,-1,-1,-1],"loss_changes":[1.1928957E1,4.5709705E-1,1.0799255E1,0E0,0E0,1.286284E1,0E0,0E0,0E0],"parents":[2147483647,0,0,1,1,2,2,5,5],"right_children":[2,4,6,-1,-1,8,-1,-1,-1],"split_conditions":[1.101E3,2.731511E0,5.916563E0,1.5703095E-2,1.04197204E-1,5.54457E-1,-9.964738E-2,-1.9776536E-2,6.004095E-2],"split_indices":[0,34,34,0,0,5,0,0,0],"split_type":[0,0,0,0,0,0,0,0,0],"sum_hessian":[1.2939012E2,1.01924515E1,1.1919767E2,1.0359142E0,9.156537E0,1.0798216E2,1.121551E1,8.233633E1,2.5645836E1],"tree_param":{"num_deleted":"0","num_feature":"39","num_nodes":"9","size_leaf_vector":"1"}},{"base_weights":[9.43127E-2,1.7306331E-1,-9.309394E-2,1.7026855E-2,8.461895E-1,1.4081838E-2,-1.1251556E-1,-4.541295E-2,9.265009E-2],"categories":[],"categories_nodes":[],"categories_segments":[],"categories_sizes":[],"default_left":[0,0,0,0,0,0,0,0,0],"id":42,"left_children":[1,3,-1,5,7,-1,-1,-1,-1],"loss_changes":[1.0930369E1,1.3084368E1,0E0,1.4617738E1,2.8694859E0,0E0,0E0,0E0,0E0],"parents":[2147483647,0,0,1,1,3,3,4,4],"right_children":[2,4,-1,6,8,-1,-1,-1,-1],"split_conditions":[4.289869E0,5.70015E-1,-9.309394E-2,3.270226E0,5E0,1.4081838E-2,-1.1251556E-1,-4.541295E-2,9.265009E-2],"split_indices":[3,5,0,3,4,0,0,0,0],"split_type":[0,0,0,0,0,0,0,0,0],"sum_hessian":[1.3238322E2,1.2371198E2,8.671238E0,1.0126352E2,2.2448462E1,9.215259E1,9.11093E0,1.0350703E0,2.1413391E1],"tree_param":{"num_deleted":"0","num_feature":"39","num_nodes":"9","size_leaf_vector":"1"}},{"base_weights":[5.090631E-2,7.2534484E-1,-6.946602E-2,1.0422307E0,-5.1807064E-1,-9.067163E-1,6.61565E-2,3.1073794E-2,1.087449E-1,6.0670473E-2,-1.08539596E-1,-1.2055232E-1,9.751728E-3,1.0433996E-1,-5.70872E-3],"categories":[],"categories_nodes":[],"categories_segments":[],"categories_sizes":[],"default_left":[0,0,0,0,0,0,0,0,0,0,0,0,0,0,0],"id":43,"left_children":[1,3,5,7,9,11,13,-1,-1,-1,-1,-1,-1,-1,-1],"loss_changes":[1.0738733E1,8.430787E0,1.28491E1,2.0095062E-1,3.6801062E0,4.849413E0,1.1845819E1,0E0,0E0,0E0,0E0,0E0,0E0,0E0,0E0],"parents":[2147483647,0,0,1,1,2,2,3,3,4,4,5,5,6,6],"right_children":[2,4,6,8,10,12,14,-1,-1,-1,-1,-1,-1,-1,-1],"split_conditions":[2.457026E0,3.7141132E1,2.119835E0,2.684304E0,9E0,4.4891666E1,1.922604E0,3.1073794E-2,1.087449E-1,6.0670473E-2,-1.08539596E-1,-1.2055232E-1,9.751728E-3,1.0433996E-1,-5.70872E-3],"split_indices":[34,22,3,14,23,21,2,0,0,0,0,0,0,0,0],"split_type":[0,0,0,0,0,0,0,0,0,0,0,0,0,0,0],"sum_hessian":[1.3065627E2,1.9026447E1,1.11629814E2,1.5291252E1,3.7351942E0,1.4769066E1,9.686075E1,1.3485061E0,1.3942746E1,1.2290585E0,2.5061357E0,1.1227819E1,3.5412464E0,1.0011316E1,8.6849434E1],"tree_param":{"num_deleted":"0","num_feature":"39","num_nodes":"15","size_leaf_vector":"1"}},{"base_weights":[2.4072634E-2,4.2655846E-1,-2.2980857E-1,5.910462E-1,-9.242387E-2,-6.574257E-1,2.3333247E-1,7.082973E-2,-9.180753E-2,-1.0035217E-1,3.5253044E-2,1.0004353E-1,-1.3798142E-2],"categories":[],"categories_nodes":[],"categories_segments":[],"categories_sizes":[],"default_left":[0,0,0,0,0,0,0,0,0,0,0,0,0],"id":44,"left_children":[1,3,5,7,-1,9,11,-1,-1,-1,-1,-1,-1],"loss_changes":[1.2871709E1,1.1367477E1,1.5463341E1,8.440455E0,0E0,1.449473E1,1.0918758E1,0E0,0E0,0E0,0E0,0E0,0E0],"parents":[2147483647,0,0,1,1,2,2,3,3,5,5,6,6],"right_children":[2,4,6,8,-1,10,12,-1,-1,-1,-1,-1,-1],"split_conditions":[5.9551E-2,6.83982E-1,9.414E-3,1.74185E-1,-9.242387E-2,6.616541E0,6.267763E0,7.082973E-2,-9.180753E-2,-1.0035217E-1,3.5253044E-2,1.0004353E-1,-1.3798142E-2],"split_indices":[16,38,12,15,0,2,8,0,0,0,0,0,0],"split_type":[0,0,0,0,0,0,0,0,0,0,0,0,0],"sum_hessian":[1.2400718E2,4.77026E1,7.630458E1,4.302576E1,4.676838E0,3.945571E1,3.6848866E1,4.041628E1,2.6094828E0,2.9390444E1,1.0065268E1,1.1466253E1,2.5382612E1],"tree_param":{"num_deleted":"0","num_feature":"39","num_nodes":"13","size_leaf_vector":"1"}},{"base_weights":[-7.323536E-4,1.0034775E-1,-7.262154E-2,-2.457211E-1,4.186796E-1,2.2792142E-2,-4.4844985E-2,1.3730526E-2,9.937539E-2],"categories":[],"categories_nodes":[],"categories_segments":[],"categories_sizes":[],"default_left":[0,0,0,0,0,0,0,0,0],"id":45,"left_children":[1,-1,3,5,7,-1,-1,-1,-1],"loss_changes":[9.231941E0,0E0,1.0251018E1,8.635509E0,4.9539638E0,0E0,0E0,0E0,0E0],"parents":[2147483647,0,0,2,2,3,3,4,4],"right_children":[2,-1,4,6,8,-1,-1,-1,-1],"split_conditions":[1.101E3,1.0034775E-1,1.241E-1,4.8426E-2,2.092032E1,2.2792142E-2,-4.4844985E-2,1.3730526E-2,9.937539E-2],"split_indices":[0,0,16,16,32,0,0,0,0],"split_type":[0,0,0,0,0,0,0,0,0],"sum_hessian":[1.2587125E2,7.5431657E0,1.1832808E2,8.786911E1,3.0458967E1,2.629976E1,6.156935E1,2.1283878E1,9.175089E0],"tree_param":{"num_deleted":"0","num_feature":"39","num_nodes":"9","size_leaf_vector":"1"}},{"base_weights":[-3.0161876E-2,6.446007E-1,-1.469077E-1,1.0440214E0,-4.7069174E-1,2.6720291E-2,-8.5712737E-1,1.0848161E-1,2.7746836E-2,6.648363E-2,-1.1166892E-1,-3.272569E-2,5.9814256E-2,4.52077E-2,-1.0285167E-1],"categories":[],"categories_nodes":[],"categories_segments":[],"categories_sizes":[],"default_left":[0,0,0,0,0,0,0,0,0,0,0,0,0,0,0],"id":46,"left_children":[1,3,5,7,9,11,13,-1,-1,-1,-1,-1,-1,-1,-1],"loss_changes":[9.822263E0,8.6877575E0,1.3104675E1,1.3236237E-1,4.8070307E0,1.7634466E1,5.14789E0,0E0,0E0,0E0,0E0,0E0,0E0,0E0,0E0],"parents":[2147483647,0,0,1,1,2,2,3,3,4,4,5,5,6,6],"right_children":[2,4,6,8,10,12,14,-1,-1,-1,-1,-1,-1,-1,-1],"split_conditions":[2.179198E0,2E1,4.480167E0,3.4727E-2,5.2486E-2,6.1845E-1,1.23225E-1,1.0848161E-1,2.7746836E-2,6.648363E-2,-1.1166892E-1,-3.272569E-2,5.9814256E-2,4.52077E-2,-1.0285167E-1],"split_indices":[2,37,34,9,16,18,26,0,0,0,0,0,0,0,0],"split_type":[0,0,0,0,0,0,0,0,0,0,0,0,0,0,0],"sum_hessian":[1.22484314E2,1.7399282E1,1.0508504E2,1.285825E1,4.5410337E0,8.521486E1,1.987017E1,1.1814324E1,1.0439252E0,1.6360458E0,2.9049878E0,5.288293E1,3.2331932E1,2.1105356E0,1.7759636E1],"tree_param":{"num_deleted":"0","num_feature":"39","num_nodes":"15","size_leaf_vector":"1"}},{"base_weights":[-5.3135388E-2,-1.4567488E-1,7.7051175E-1,4.997304E-1,-3.1214094E-1,1.038754E-1,-4.24578E-2,-1.910199E-2,1.0201663E-1,-9.5025204E-2,-1.0874363E-3,-8.6218216E-2,6.947774E-2],"categories":[],"categories_nodes":[],"categories_segments":[],"categories_sizes":[],"default_left":[0,0,0,0,0,0,0,0,0,0,0,0,0],"id":47,"left_children":[1,3,5,7,9,-1,11,-1,-1,-1,-1,-1,-1],"loss_changes":[9.40953E0,1.2027916E1,2.7655597E0,8.478064E0,1.699512E1,0E0,3.0506942E0,0E0,0E0,0E0,0E0,0E0,0E0],"parents":[2147483647,0,0,1,1,2,2,3,3,4,4,6,6],"right_children":[2,4,6,8,10,-1,12,-1,-1,-1,-1,-1,-1],"split_conditions":[4.1600727E1,6.267763E0,5.29683E-1,2.18807E-1,1.9638461E2,1.038754E-1,4.9503E-1,-1.910199E-2,1.0201663E-1,-9.5025204E-2,-1.0874363E-3,-8.6218216E-2,6.947774E-2],"split_indices":[22,8,19,26,27,0,26,0,0,0,0,0,0],"split_type":[0,0,0,0,0,0,0,0,0,0,0,0,0],"sum_hessian":[1.2097978E2,1.09500206E2,1.1479578E1,2.2041428E1,8.745878E1,8.422737E0,3.0568411E0,9.742983E0,1.2298446E1,2.7357924E1,6.0100853E1,1.3671929E0,1.6896484E0],"tree_param":{"num_deleted":"0","num_feature":"39","num_nodes":"13","size_leaf_vector":"1"}},{"base_weights":[3.8172558E-2,2.7315044E-1,-2.884924E-1,-1.710046E-2,7.3811054E-1,4.4041914E-1,-6.6011983E-1,4.021416E-2,-6.357717E-2,8.9884475E-2,-5.5261564E-2,7.629075E-2,-4.5870963E-2,-1.2072352E-1,-1.2715376E-2],"categories":[],"categories_nodes":[],"categories_segments":[],"categories_sizes":[],"default_left":[0,0,0,0,0,0,0,0,0,0,0,0,0,0,0],"id":48,"left_children":[1,3,5,7,9,11,13,-1,-1,-1,-1,-1,-1,-1,-1],"loss_changes":[9.155969E0,9.364171E0,1.3824484E1,1.15745535E1,6.026538E0,5.4157333E0,9.612216E0,0E0,0E0,0E0,0E0,0E0,0E0,0E0,0E0],"parents":[2147483647,0,0,1,1,2,2,3,3,4,4,5,5,6,6],"right_children":[2,4,6,8,10,12,14,-1,-1,-1,-1,-1,-1,-1,-1],"split_conditions":[3.679714E1,3.99282E-1,3.056678E0,1.9E1,3.9120144E1,3.5184547E1,6.17384E0,4.021416E-2,-6.357717E-2,8.9884475E-2,-5.5261564E-2,7.629075E-2,-4.5870963E-2,-1.2072352E-1,-1.2715376E-2],"split_indices":[28,5,34,37,8,22,2,0,0,0,0,0,0,0,0],"split_type":[0,0,0,0,0,0,0,0,0,0,0,0,0,0,0],"sum_hessian":[1.1725532E2,6.829379E1,4.8961525E1,4.2639404E1,2.5654388E1,1.6470705E1,3.249082E1,2.5624783E1,1.7014622E1,2.3083422E1,2.5709665E0,1.2234199E1,4.2365065E0,1.5408315E1,1.7082506E1],"tree_param":{"num_deleted":"0","num_feature":"39","num_nodes":"15","size_leaf_vector":"1"}},{"base_weights":[1.7954975E-2,6.474793E-1,-8.2390584E-2,9.4282764E-1,-4.1594353E-1,-7.5327176E-1,8.039523E-2,1.4183573E-2,1.0220299E-1,5.608457E-2,-9.250199E-2,-1.3462503E-1,4.213987E-2,5.3014517E-2,-2.87524E-2],"categories":[],"categories_nodes":[],"categories_segments":[],"categories_sizes":[],"default_left":[0,0,0,0,0,0,0,0,0,0,0,0,0,0,0],"id":49,"left_children":[1,3,5,7,9,11,13,-1,-1,-1,-1,-1,-1,-1,-1],"loss_changes":[7.4186597E0,5.4623203E0,1.1140158E1,6.7596436E-1,2.6086626E0,1.4433265E1,1.38114195E1,0E0,0E0,0E0,0E0,0E0,0E0,0E0,0E0],"parents":[2147483647,0,0,1,1,2,2,3,3,4,4,5,5,6,6],"right_children":[2,4,6,8,10,12,14,-1,-1,-1,-1,-1,-1,-1,-1],"split_conditions":[2.457026E0,3.7141132E1,3.18889E-1,2.684304E0,9E0,1.99236E-1,7.15E0,1.4183573E-2,1.0220299E-1,5.608457E-2,-9.250199E-2,-1.3462503E-1,4.213987E-2,5.3014517E-2,-2.87524E-2],"split_indices":[34,22,38,14,23,20,29,0,0,0,0,0,0,0,0],"split_type":[0,0,0,0,0,0,0,0,0,0,0,0,0,0,0],"sum_hessian":[1.1559517E2,1.5142875E1,1.0045229E2,1.1940107E1,3.2027674E0,1.8906496E1,8.15458E1,1.3255271E0,1.061458E1,1.0624675E0,2.1402998E0,1.2467024E1,6.439472E0,3.6494026E1,4.5051773E1],"tree_param":{"num_deleted":"0","num_feature":"39","num_nodes":"15","size_leaf_vector":"1"}},{"base_weights":[-3.5516035E-3,6.61068E-1,-1.5629221E-1,8.306499E-1,-7.225777E-2,-3.1299922E-1,6.450502E-1,9.186163E-2,-3.8141873E-2,-5.0477143E-3,-7.902603E-2,8.5036874E-2,-6.477444E-2],"categories":[],"categories_nodes":[],"categories_segments":[],"categories_sizes":[],"default_left":[0,0,0,0,0,0,0,0,0,0,0,0,0],"id":50,"left_children":[1,3,5,7,-1,9,11,-1,-1,-1,-1,-1,-1],"loss_changes":[1.1700479E1,5.6542883E0,1.196861E1,2.445816E0,0E0,9.864221E0,4.7057815E0,0E0,0E0,0E0,0E0,0E0,0E0],"parents":[2147483647,0,0,1,1,2,2,3,3,5,5,6,6],"right_children":[2,4,6,8,-1,10,12,-1,-1,-1,-1,-1,-1],"split_conditions":[3.7867E-2,6.83982E-1,1.334344E0,3.872308E1,-7.225777E-2,7.35E0,4.177702E0,9.186163E-2,-3.8141873E-2,-5.0477143E-3,-7.902603E-2,8.5036874E-2,-6.477444E-2],"split_indices":[16,38,18,8,0,29,34,0,0,0,0,0,0],"split_type":[0,0,0,0,0,0,0,0,0,0,0,0,0],"sum_hessian":[1.1324151E2,2.0539597E1,9.270191E1,1.8653107E1,1.8864895E0,7.80485E1,1.4653415E1,1.7616678E1,1.0364288E0,5.10653E1,2.6983198E1,1.2940465E1,1.712949E0],"tree_param":{"num_deleted":"0","num_feature":"39","num_nodes":"13","size_leaf_vector":"1"}},{"base_weights":[-1.5929708E-2,6.916582E-1,-1.1764022E-1,9.4834924E-2,-1.6286509E-1,-1.2147204E0,1.5011823E-2,6.344497E-2,-7.865323E-2,-1.3938494E-1,1.6048491E-2,3.397175E-2,-3.8238417E-2],"categories":[],"categories_nodes":[],"categories_segments":[],"categories_sizes":[],"default_left":[0,0,0,0,0,0,0,0,0,0,0,0,0],"id":51,"left_children":[1,3,5,-1,7,9,11,-1,-1,-1,-1,-1,-1],"loss_changes":[8.250804E0,3.3155675E0,1.4586025E1,0E0,2.5787873E0,2.8866796E0,1.1780815E1,0E0,0E0,0E0,0E0,0E0,0E0],"parents":[2147483647,0,0,1,1,2,2,4,4,5,5,6,6],"right_children":[2,4,6,-1,8,10,12,-1,-1,-1,-1,-1,-1],"split_conditions":[2.457026E0,3.671318E1,2.042032E0,9.4834924E-2,8.1013E-2,3.76441E-1,7.3E0,6.344497E-2,-7.865323E-2,-1.3938494E-1,1.6048491E-2,3.397175E-2,-3.8238417E-2],"split_indices":[34,22,3,0,24,5,29,0,0,0,0,0,0],"split_type":[0,0,0,0,0,0,0,0,0,0,0,0,0],"sum_hessian":[1.1251307E2,1.3411386E1,9.9101685E1,1.0228914E1,3.182472E0,9.810244E0,8.9291435E1,1.3891948E0,1.7932771E0,8.667668E0,1.142575E0,4.9219856E1,4.0071583E1],"tree_param":{"num_deleted":"0","num_feature":"39","num_nodes":"13","size_leaf_vector":"1"}},{"base_weights":[1.2135191E-2,3.7406585E-1,-1.8456921E-1,-4.1550797E-1,8.242483E-1,2.5243124E-2,-9.911612E-1,8.303275E-2,-8.429036E-2,-4.1987537E-4,9.359872E-2,-2.708206E-2,4.1604783E-2,-1.8467009E-1,2.0782031E-2],"categories":[],"categories_nodes":[],"categories_segments":[],"categories_sizes":[],"default_left":[0,0,0,0,0,0,0,0,0,0,0,0,0,0,0],"id":52,"left_children":[1,3,5,7,9,11,13,-1,-1,-1,-1,-1,-1,-1,-1],"loss_changes":[8.046236E0,1.4484116E1,1.242384E1,8.7462845E0,2.3805008E0,6.952602E0,1.5922854E1,0E0,0E0,0E0,0E0,0E0,0E0,0E0,0E0],"parents":[2147483647,0,0,1,1,2,2,3,3,4,4,5,5,6,6],"right_children":[2,4,6,8,10,12,14,-1,-1,-1,-1,-1,-1,-1,-1],"split_conditions":[1.69585E-1,1.7078572E2,5.22402E-1,1.061E3,1.27291E-1,4.17002E-1,9.958468E0,8.303275E-2,-8.429036E-2,-4.1987537E-4,9.359872E-2,-2.708206E-2,4.1604783E-2,-1.8467009E-1,2.0782031E-2],"split_indices":[35,27,26,0,20,5,36,0,0,0,0,0,0,0,0],"split_type":[0,0,0,0,0,0,0,0,0,0,0,0,0,0,0],"sum_hessian":[1.11049706E2,3.8784897E1,7.22648E1,1.41116085E1,2.4673288E1,5.8116203E1,1.41486E1,3.3637364E0,1.0747872E1,3.0467446E0,2.1626545E1,3.324082E1,2.4875383E1,7.941602E0,6.206997E0],"tree_param":{"num_deleted":"0","num_feature":"39","num_nodes":"15","size_leaf_vector":"1"}},{"base_weights":[4.471255E-2,7.2438645E-1,-6.968273E-2,9.775384E-1,-1.2020953E-1,-2.7644652E-1,3.0173206E-1,2.7093524E-2,1.0221972E-1,6.710885E-2,-7.944548E-2,-1.1856092E-2,-1.1290485E-1,-1.2763086E-2,8.409547E-2],"categories":[],"categories_nodes":[],"categories_segments":[],"categories_sizes":[],"default_left":[0,0,0,0,0,0,0,0,0,0,0,0,0,0,0],"id":53,"left_children":[1,3,5,7,9,11,13,-1,-1,-1,-1,-1,-1,-1,-1],"loss_changes":[8.518024E0,3.4907808E0,7.312014E0,1.0955238E-1,2.949397E0,8.0760565E0,8.011408E0,0E0,0E0,0E0,0E0,0E0,0E0,0E0,0E0],"parents":[2147483647,0,0,1,1,2,2,3,3,4,4,5,5,6,6],"right_children":[2,4,6,8,10,12,14,-1,-1,-1,-1,-1,-1,-1,-1],"split_conditions":[2.02005E0,2E1,1.07498E-1,2.57026E-1,1.692565E0,1.83315E-1,2.5481818E2,2.7093524E-2,1.0221972E-1,6.710885E-2,-7.944548E-2,-1.1856092E-2,-1.1290485E-1,-1.2763086E-2,8.409547E-2],"split_indices":[2,37,16,38,2,15,27,0,0,0,0,0,0,0,0],"split_type":[0,0,0,0,0,0,0,0,0,0,0,0,0,0,0],"sum_hessian":[1.0790526E2,1.47768755E1,9.312839E1,1.1248072E1,3.5288036E0,5.998878E1,3.3139606E1,1.0887287E0,1.0159344E1,1.6256334E0,1.9031702E0,5.15768E1,8.411982E0,1.8874136E1,1.4265468E1],"tree_param":{"num_deleted":"0","num_feature":"39","num_nodes":"15","size_leaf_vector":"1"}},{"base_weights":[4.5926303E-2,6.6562575E-1,-9.401067E-2,-6.7796454E-2,8.328873E-1,-7.2082347E-1,1.1750661E-1,9.919341E-2,1.0244399E-2,3.8553834E-2,-1.2887566E-1,6.694692E-2,-1.6956827E-2],"categories":[],"categories_nodes":[],"categories_segments":[],"categories_sizes":[],"default_left":[0,0,0,0,0,0,0,0,0,0,0,0,0],"id":54,"left_children":[1,3,5,-1,7,9,11,-1,-1,-1,-1,-1,-1],"loss_changes":[9.369813E0,5.0356903E0,1.1809109E1,0E0,2.00593E0,1.4604434E1,1.0726713E1,0E0,0E0,0E0,0E0,0E0,0E0],"parents":[2147483647,0,0,1,1,2,2,4,4,5,5,6,6],"right_children":[2,4,6,-1,8,10,12,-1,-1,-1,-1,-1,-1],"split_conditions":[6.267763E0,9.342322E0,2.395489E0,-6.7796454E-2,1.1E1,9E0,1.98507E-1,9.919341E-2,1.0244399E-2,3.8553834E-2,-1.2887566E-1,6.694692E-2,-1.6956827E-2],"split_indices":[8,7,3,0,37,23,35,0,0,0,0,0,0],"split_type":[0,0,0,0,0,0,0,0,0,0,0,0,0],"sum_hessian":[1.0632654E2,1.8894993E1,8.743154E1,1.7537805E0,1.7141212E1,2.1452143E1,6.59794E1,1.3782271E1,3.3589413E0,7.385662E0,1.4066481E1,2.211896E1,4.3860443E1],"tree_param":{"num_deleted":"0","num_feature":"39","num_nodes":"13","size_leaf_vector":"1"}},{"base_weights":[-3.1778544E-2,3.9324555E-1,-1.6862012E-1,-2.077343E-1,7.22004E-1,3.3173266E-1,-4.043741E-1,5.4538E-2,-1.019246E-1,9.015168E-2,-3.7652727E-2,-6.4746715E-2,7.782786E-2,-7.531495E-2,3.0676514E-2],"categories":[],"categories_nodes":[],"categories_segments":[],"categories_sizes":[],"default_left":[0,0,0,0,0,0,0,0,0,0,0,0,0,0,0],"id":55,"left_children":[1,3,5,7,9,11,13,-1,-1,-1,-1,-1,-1,-1,-1],"loss_changes":[6.093623E0,5.195995E0,9.463869E0,6.549773E0,3.6390104E0,1.18202715E1,1.3677092E1,0E0,0E0,0E0,0E0,0E0,0E0,0E0,0E0],"parents":[2147483647,0,0,1,1,2,2,3,3,4,4,5,5,6,6],"right_children":[2,4,6,8,10,12,14,-1,-1,-1,-1,-1,-1,-1,-1],"split_conditions":[5.02699E-1,7.833793E1,1.55056E-1,2.179198E0,3.555577E0,7.53369E-1,5.40806E-1,5.4538E-2,-1.019246E-1,9.015168E-2,-3.7652727E-2,-6.4746715E-2,7.782786E-2,-7.531495E-2,3.0676514E-2],"split_indices":[19,33,35,2,3,17,5,0,0,0,0,0,0,0,0],"split_type":[0,0,0,0,0,0,0,0,0,0,0,0,0,0,0],"sum_hessian":[1.026316E2,2.4539434E1,7.809217E1,8.807393E0,1.5732041E1,2.4880304E1,5.321186E1,4.7381506E0,4.069242E0,1.3676488E1,2.0555537E0,7.65163E0,1.7228676E1,3.566234E1,1.7549524E1],"tree_param":{"num_deleted":"0","num_feature":"39","num_nodes":"15","size_leaf_vector":"1"}},{"base_weights":[4.2899285E-2,1.1270597E-1,-7.8472257E-1,8.414697E-1,4.504333E-3,1.0916792E-2,-9.248834E-2,9.341436E-2,1.8165975E-4,-1.8725965E-2,5.2502044E-2],"categories":[],"categories_nodes":[],"categories_segments":[],"categories_sizes":[],"default_left":[0,0,0,0,0,0,0,0,0,0,0],"id":56,"left_children":[1,3,5,7,9,-1,-1,-1,-1,-1,-1],"loss_changes":[6.0914297E0,7.621146E0,1.129323E0,9.706297E-1,8.602861E0,0E0,0E0,0E0,0E0,0E0,0E0],"parents":[2147483647,0,0,1,1,2,2,3,3,4,4],"right_children":[2,4,6,8,10,-1,-1,-1,-1,-1,-1],"split_conditions":[6.368897E0,3.3652E-2,8.874816E1,3.8981094E1,5.25922E-1,1.0916792E-2,-9.248834E-2,9.341436E-2,1.8165975E-4,-1.8725965E-2,5.2502044E-2],"split_indices":[34,16,33,28,5,0,0,0,0,0,0],"split_type":[0,0,0,0,0,0,0,0,0,0,0],"sum_hessian":[1.0290548E2,9.569758E1,7.2078996E0,1.1495537E1,8.420204E1,1.0069699E0,6.2009296E0,1.0251524E1,1.2440126E0,6.2000576E1,2.2201466E1],"tree_param":{"num_deleted":"0","num_feature":"39","num_nodes":"11","size_leaf_vector":"1"}},{"base_weights":[2.6774865E-2,1.7536299E-1,-5.42841E-1,-4.413459E-2,6.513367E-1,9.810097E-2,-1.1568856E0,4.043947E-2,-4.0977947E-2,7.779106E-2,-3.153084E-2,6.7746006E-2,-7.520795E-2,-2.9211933E-2,-1.22587204E-1],"categories":[],"categories_nodes":[],"categories_segments":[],"categories_sizes":[],"default_left":[0,0,0,0,0,0,0,0,0,0,0,0,0,0,0],"id":57,"left_children":[1,3,5,7,9,11,13,-1,-1,-1,-1,-1,-1,-1,-1],"loss_changes":[8.592912E0,8.426943E0,8.384649E0,9.341817E0,3.3571377E0,6.0284204E0,2.8687E-1,0E0,0E0,0E0,0E0,0E0,0E0,0E0,0E0],"parents":[2147483647,0,0,1,1,2,2,3,3,4,4,5,5,6,6],"right_children":[2,4,6,8,10,12,14,-1,-1,-1,-1,-1,-1,-1,-1],"split_conditions":[4.480167E0,6.38917E-1,2.1227E-1,6.2821E-2,4.155073E0,3.6018513E1,6.714708E0,4.043947E-2,-4.0977947E-2,7.779106E-2,-3.153084E-2,6.7746006E-2,-7.520795E-2,-2.9211933E-2,-1.22587204E-1],"split_indices":[34,18,20,16,34,28,13,0,0,0,0,0,0,0,0],"split_type":[0,0,0,0,0,0,0,0,0,0,0,0,0,0,0],"sum_hessian":[9.940056E1,7.9384674E1,2.0015884E1,5.495102E1,2.4433651E1,1.0204563E1,9.811321E0,2.463086E1,3.0320162E1,2.1777344E1,2.6563072E0,6.189714E0,4.0148497E0,1.1115931E0,8.699729E0],"tree_param":{"num_deleted":"0","num_feature":"39","num_nodes":"15","size_leaf_vector":"1"}},{"base_weights":[-2.157046E-2,5.3785384E-1,-1.305134E-1,7.9571545E-1,-4.0509894E-1,-2.887266E-1,3.2317746E-1,8.9464776E-2,-1.242578E-2,3.787427E-2,-8.00749E-2,-1.4033965E-2,-1.1474273E-1,-7.11069E-3,7.8757316E-2],"categories":[],"categories_nodes":[],"categories_segments":[],"categories_sizes":[],"default_left":[0,0,0,0,0,0,0,0,0,0,0,0,0,0,0],"id":58,"left_children":[1,3,5,7,9,11,13,-1,-1,-1,-1,-1,-1,-1,-1],"loss_changes":[6.161078E0,4.3307815E0,6.1554604E0,1.3200912E0,1.6066473E0,7.885078E0,4.140753E0,0E0,0E0,0E0,0E0,0E0,0E0,0E0,0E0],"parents":[2147483647,0,0,1,1,2,2,3,3,4,4,5,5,6,6],"right_children":[2,4,6,8,10,12,14,-1,-1,-1,-1,-1,-1,-1,-1],"split_conditions":[3.7867E-2,3.8981094E1,1.241E-1,5.876182E0,3.416416E0,1.83315E-1,2.6844446E2,8.9464776E-2,-1.242578E-2,3.787427E-2,-8.00749E-2,-1.4033965E-2,-1.1474273E-1,-7.11069E-3,7.8757316E-2],"split_indices":[16,28,16,34,34,15,27,0,0,0,0,0,0,0,0],"split_type":[0,0,0,0,0,0,0,0,0,0,0,0,0,0,0],"sum_hessian":[9.8940094E1,1.5485368E1,8.345472E1,1.2282672E1,3.2026966E0,6.214636E1,2.1308365E1,1.1114921E1,1.1677507E0,1.0886506E0,2.114046E0,5.398156E1,8.164799E0,1.1982114E1,9.326251E0],"tree_param":{"num_deleted":"0","num_feature":"39","num_nodes":"15","size_leaf_vector":"1"}},{"base_weights":[4.859811E-3,7.861739E-1,-6.761167E-2,9.810127E-2,-1.9706873E-2,-8.705704E-1,5.742016E-2,5.8430824E-3,-9.609266E-2,3.2122444E-2,-2.5604753E-2],"categories":[],"categories_nodes":[],"categories_segments":[],"categories_sizes":[],"default_left":[0,0,0,0,0,0,0,0,0,0,0],"id":59,"left_children":[1,3,5,-1,-1,7,9,-1,-1,-1,-1],"loss_changes":[5.4754896E0,1.7657113E0,8.940438E0,0E0,0E0,1.0628653E0,6.496104E0,0E0,0E0,0E0,0E0],"parents":[2147483647,0,0,1,1,2,2,5,5,6,6],"right_children":[2,4,6,-1,-1,8,10,-1,-1,-1,-1],"split_conditions":[5.16544E-1,7.8597E-2,2.3274E-2,9.810127E-2,-1.9706873E-2,9.858E-2,4.944128E0,5.8430824E-3,-9.609266E-2,3.2122444E-2,-2.5604753E-2],"split_indices":[25,16,9,0,0,15,14,0,0,0,0],"split_type":[0,0,0,0,0,0,0,0,0,0,0],"sum_hessian":[9.476207E1,7.2077184E0,8.755435E1,6.0175514E0,1.1901668E0,1.0993154E1,7.65612E1,1.0057559E0,9.987398E0,4.156049E1,3.500071E1],"tree_param":{"num_deleted":"0","num_feature":"39","num_nodes":"11","size_leaf_vector":"1"}},{"base_weights":[-2.369547E-3,2.3912363E-1,-2.7742085E-1,-3.0615317E-2,7.5288373E-1,6.8440366E-1,-4.988541E-1,3.9103027E-2,-8.143974E-2,9.087574E-2,-9.680412E-2,-3.930516E-2,8.689458E-2,-9.662662E-2,1.8738395E-2],"categories":[],"categories_nodes":[],"categories_segments":[],"categories_sizes":[],"default_left":[0,0,0,0,0,0,0,0,0,0,0,0,0,0,0],"id":60,"left_children":[1,3,5,7,9,11,13,-1,-1,-1,-1,-1,-1,-1,-1],"loss_changes":[6.6119103E0,7.3692293E0,1.0252178E1,1.2123433E1,5.785697E0,2.1568842E0,1.2499344E1,0E0,0E0,0E0,0E0,0E0,0E0,0E0,0E0],"parents":[2147483647,0,0,1,1,2,2,3,3,4,4,5,5,6,6],"right_children":[2,4,6,8,10,12,14,-1,-1,-1,-1,-1,-1,-1,-1],"split_conditions":[4.239169E0,1.7078572E2,1.69585E-1,1.9E1,4.063543E1,2.240684E0,5.54457E-1,3.9103027E-2,-8.143974E-2,9.087574E-2,-9.680412E-2,-3.930516E-2,8.689458E-2,-9.662662E-2,1.8738395E-2],"split_indices":[36,27,35,37,22,3,5,0,0,0,0,0,0,0,0],"split_type":[0,0,0,0,0,0,0,0,0,0,0,0,0,0,0],"sum_hessian":[9.754374E1,5.2009964E1,4.5533775E1,3.4720898E1,1.7289068E1,8.129861E0,3.740391E1,2.2901722E1,1.1819176E1,1.6285902E1,1.0031664E0,1.0236093E0,7.1062517E0,2.200664E1,1.5397274E1],"tree_param":{"num_deleted":"0","num_feature":"39","num_nodes":"15","size_leaf_vector":"1"}},{"base_weights":[3.624252E-2,7.2241575E-1,-6.1902855E-2,-1.8676062E-1,9.9169455E-2,-7.979213E-1,9.964588E-2,-7.691432E-2,5.7349164E-2,-1.2261509E-1,9.875325E-3,5.12594E-2,-1.7641934E-2],"categories":[],"categories_nodes":[],"categories_segments":[],"categories_sizes":[],"default_left":[0,0,0,0,0,0,0,0,0,0,0,0,0],"id":61,"left_children":[1,3,5,7,-1,9,11,-1,-1,-1,-1,-1,-1],"loss_changes":[6.5052047E0,3.1434631E0,1.0168213E1,2.036162E0,0E0,6.0276775E0,8.123581E0,0E0,0E0,0E0,0E0,0E0,0E0],"parents":[2147483647,0,0,1,1,2,2,3,3,5,5,6,6],"right_children":[2,4,6,8,-1,10,12,-1,-1,-1,-1,-1,-1],"split_conditions":[2.410467E0,2.006136E0,3.18889E-1,1.060924E0,9.9169455E-2,1.93293E-1,4.239169E0,-7.691432E-2,5.7349164E-2,-1.2261509E-1,9.875325E-3,5.12594E-2,-1.7641934E-2],"split_indices":[34,34,38,25,0,20,36,0,0,0,0,0,0],"split_type":[0,0,0,0,0,0,0,0,0,0,0,0,0],"sum_hessian":[9.493157E1,1.10832815E1,8.384829E1,2.6025689E0,8.480712E0,1.4382447E1,6.946584E1,1.4670541E0,1.1355146E0,9.485138E0,4.8973093E0,2.7489414E1,4.1976425E1],"tree_param":{"num_deleted":"0","num_feature":"39","num_nodes":"13","size_leaf_vector":"1"}},{"base_weights":[8.146581E-3,2.1567844E-1,-3.132058E-1,-6.01276E-1,3.3625135E-1,1.1221255E-1,-8.5538566E-1,3.7601642E-2,-1.1141596E-1,5.0821938E-2,-3.7348352E-2,-5.8484055E-2,6.561751E-2,-1.6232885E-2,-1.3768579E-1],"categories":[],"categories_nodes":[],"categories_segments":[],"categories_sizes":[],"default_left":[0,0,0,0,0,0,0,0,0,0,0,0,0,0,0],"id":62,"left_children":[1,3,5,7,9,11,13,-1,-1,-1,-1,-1,-1,-1,-1],"loss_changes":[6.3983393E0,5.9419727E0,8.781666E0,4.354993E0,6.465442E0,8.719646E0,5.8020525E0,0E0,0E0,0E0,0E0,0E0,0E0,0E0,0E0],"parents":[2147483647,0,0,1,1,2,2,3,3,4,4,5,5,6,6],"right_children":[2,4,6,8,10,12,14,-1,-1,-1,-1,-1,-1,-1,-1],"split_conditions":[5.121353E0,5.882353E0,1.93661E-1,7E0,2.4837439E1,6.692308E0,7.0753E-2,3.7601642E-2,-1.1141596E-1,5.0821938E-2,-3.7348352E-2,-5.8484055E-2,6.561751E-2,-1.6232885E-2,-1.3768579E-1],"split_indices":[14,29,35,23,8,29,16,0,0,0,0,0,0,0,0],"split_type":[0,0,0,0,0,0,0,0,0,0,0,0,0,0,0],"sum_hessian":[9.392736E1,5.727048E1,3.665688E1,6.85267E0,5.0417812E1,2.0984524E1,1.5672355E1,2.4503746E0,4.4022956E0,4.0812836E1,9.604976E0,9.165007E0,1.1819517E1,7.2921267E0,8.380228E0],"tree_param":{"num_deleted":"0","num_feature":"39","num_nodes":"15","size_leaf_vector":"1"}},{"base_weights":[3.3530474E-2,1.9732328E-1,-4.040348E-1,-6.893183E-1,2.8579807E-1,-1.1907954E0,2.2867334E-1,-9.4126515E-2,3.3535294E-2,5.098007E-2,-3.502056E-3,-1.6423295E-1,4.5345843E-2,6.9691055E-2,-1.03175975E-1],"categories":[],"categories_nodes":[],"categories_segments":[],"categories_sizes":[],"default_left":[0,0,0,0,0,0,0,0,0,0,0,0,0,0,0],"id":63,"left_children":[1,3,5,7,9,11,13,-1,-1,-1,-1,-1,-1,-1,-1],"loss_changes":[6.7512593E0,5.563024E0,1.3056698E1,1.9936111E0,4.538462E0,9.3633995E0,9.615258E0,0E0,0E0,0E0,0E0,0E0,0E0,0E0,0E0],"parents":[2147483647,0,0,1,1,2,2,3,3,4,4,5,5,6,6],"right_children":[2,4,6,8,10,12,14,-1,-1,-1,-1,-1,-1,-1,-1],"split_conditions":[4.53168E-1,5.411567E0,1.7E1,3.105848E0,7.285714E0,2.79227E-1,4.445178E0,-9.4126515E-2,3.3535294E-2,5.098007E-2,-3.502056E-3,-1.6423295E-1,4.5345843E-2,6.9691055E-2,-1.03175975E-1],"split_indices":[26,13,37,14,29,20,34,0,0,0,0,0,0,0,0],"split_type":[0,0,0,0,0,0,0,0,0,0,0,0,0,0,0],"sum_hessian":[9.2086784E1,6.740447E1,2.4682318E1,5.4996033E0,6.190487E1,1.0608628E1,1.4073689E1,4.479563E0,1.0200402E0,3.6105885E1,2.5798983E1,8.323935E0,2.2846935E0,1.0587598E1,3.486091E0],"tree_param":{"num_deleted":"0","num_feature":"39","num_nodes":"15","size_leaf_vector":"1"}},{"base_weights":[4.0480294E-3,6.882872E-2,-8.298605E-2,-6.6213205E-2,5.7180494E-1,-1.9969575E-2,6.767231E-2,8.018685E-2,-5.431E-2],"categories":[],"categories_nodes":[],"categories_segments":[],"categories_sizes":[],"default_left":[0,0,0,0,0,0,0,0,0],"id":64,"left_children":[1,3,-1,5,7,-1,-1,-1,-1],"loss_changes":[4.967283E0,5.829295E0,0E0,6.8899426E0,5.0911574E0,0E0,0E0,0E0,0E0],"parents":[2147483647,0,0,1,1,3,3,4,4],"right_children":[2,4,-1,6,8,-1,-1,-1,-1],"split_conditions":[5.916563E0,5.84238E-1,-8.298605E-2,1.306589E0,6.79118E-1,-1.9969575E-2,6.767231E-2,8.018685E-2,-5.431E-2],"split_indices":[34,38,0,18,38,0,0,0,0],"split_type":[0,0,0,0,0,0,0,0,0],"sum_hessian":[8.989336E1,8.4264854E1,5.6285014E0,6.7114044E1,1.7150805E1,5.7512115E1,9.601931E0,1.44498205E1,2.7009847E0],"tree_param":{"num_deleted":"0","num_feature":"39","num_nodes":"9","size_leaf_vector":"1"}},{"base_weights":[-4.0853806E-2,4.5707306E-1,-1.6682185E-1,-1.4142966E-1,9.1294396E-1,-9.0754515E-1,9.2322186E-2,-6.6736795E-2,7.903157E-2,1.775847E-2,9.751965E-2,3.3798892E-2,-1.4548248E-1,7.240663E-2,-1.5143155E-2],"categories":[],"categories_nodes":[],"categories_segments":[],"categories_sizes":[],"default_left":[0,0,0,0,0,0,0,0,0,0,0,0,0,0,0],"id":65,"left_children":[1,3,5,7,9,11,13,-1,-1,-1,-1,-1,-1,-1,-1],"loss_changes":[5.6757803E0,5.1200047E0,1.3900978E1,4.8274302E0,3.082924E-1,1.3271703E1,8.461033E0,0E0,0E0,0E0,0E0,0E0,0E0,0E0,0E0],"parents":[2147483647,0,0,1,1,2,2,3,3,4,4,5,5,6,6],"right_children":[2,4,6,8,10,12,14,-1,-1,-1,-1,-1,-1,-1,-1],"split_conditions":[6.267763E0,2.18807E-1,2.40843E0,1.0508E-2,9.54171E-1,9E0,4.24216E-1,-6.6736795E-2,7.903157E-2,1.775847E-2,9.751965E-2,3.3798892E-2,-1.4548248E-1,7.240663E-2,-1.5143155E-2],"split_indices":[8,26,3,12,36,23,38,0,0,0,0,0,0,0,0],"split_type":[0,0,0,0,0,0,0,0,0,0,0,0,0,0,0],"sum_hessian":[8.827413E1,1.7292358E1,7.0981766E1,7.7747817E0,9.517577E0,1.7748457E1,5.323331E1,5.1509767E0,2.6238053E0,1.0435286E0,8.47405E0,5.5346856E0,1.2213771E1,1.4272458E1,3.8960854E1],"tree_param":{"num_deleted":"0","num_feature":"39","num_nodes":"15","size_leaf_vector":"1"}},{"base_weights":[6.745501E-3,6.4703566E-1,-8.615036E-2,-3.404004E-2,8.705927E-1,-2.5000167E-1,4.446351E-1,9.571043E-2,7.7403816E-3,-1.2119553E-2,-1.08395375E-1,-1.6546889E-3,8.03705E-2],"categories":[],"categories_nodes":[],"categories_segments":[],"categories_sizes":[],"default_left":[0,0,0,0,0,0,0,0,0,0,0,0,0],"id":66,"left_children":[1,3,5,-1,7,9,11,-1,-1,-1,-1,-1,-1],"loss_changes":[5.302598E0,2.789494E0,6.8876433E0,0E0,5.7713366E-1,6.3328867E0,3.1164367E0,0E0,0E0,0E0,0E0,0E0,0E0],"parents":[2147483647,0,0,1,1,2,2,4,4,5,5,6,6],"right_children":[2,4,6,-1,8,10,12,-1,-1,-1,-1,-1,-1],"split_conditions":[2.02005E0,9.768E-2,1.241E-1,-3.404004E-2,2E1,1.83315E-1,2.465246E0,9.571043E-2,7.7403816E-3,-1.2119553E-2,-1.08395375E-1,-1.6546889E-3,8.03705E-2],"split_indices":[2,35,16,0,37,15,3,0,0,0,0,0,0],"split_type":[0,0,0,0,0,0,0,0,0,0,0,0,0],"sum_hessian":[8.721164E1,1.0294059E1,7.691758E1,1.803863E0,8.490196E0,5.9178432E1,1.7739147E1,7.4689217E0,1.0212746E0,5.2253124E1,6.9253097E0,8.182995E0,9.556152E0],"tree_param":{"num_deleted":"0","num_feature":"39","num_nodes":"13","size_leaf_vector":"1"}},{"base_weights":[-9.596158E-3,6.7120165E-2,-7.94954E-1,-5.2635677E-2,7.6608163E-1,-1.5031203E0,4.0980724E-1,6.662329E-2,-1.6335469E-2,9.682286E-2,-5.497822E-2,-2.3249447E-1,-7.002745E-2,6.317659E-2,-8.602016E-3],"categories":[],"categories_nodes":[],"categories_segments":[],"categories_sizes":[],"default_left":[0,0,0,0,0,0,0,0,0,0,0,0,0,0,0],"id":67,"left_children":[1,3,5,7,9,11,13,-1,-1,-1,-1,-1,-1,-1,-1],"loss_changes":[5.2007375E0,6.6323514E0,7.1689153E0,5.5346174E0,3.6135664E0,1.7048788E0,4.5374453E-1,0E0,0E0,0E0,0E0,0E0,0E0,0E0,0E0],"parents":[2147483647,0,0,1,1,2,2,3,3,4,4,5,5,6,6],"right_children":[2,4,6,8,10,12,14,-1,-1,-1,-1,-1,-1,-1,-1],"split_conditions":[5.10031E-1,5.81076E-1,2.8719E-2,3.4728E-2,4.0861E0,1.93293E-1,1.65074E-1,6.662329E-2,-1.6335469E-2,9.682286E-2,-5.497822E-2,-2.3249447E-1,-7.002745E-2,6.317659E-2,-8.602016E-3],"split_indices":[6,5,9,16,3,20,35,0,0,0,0,0,0,0,0],"split_type":[0,0,0,0,0,0,0,0,0,0,0,0,0,0,0],"sum_hessian":[8.443404E1,7.7753365E1,6.680668E0,6.7169624E1,1.0583744E1,4.0515127E0,2.629155E0,8.2950115E0,5.887461E1,9.403359E0,1.1803848E0,1.0652262E0,2.9862866E0,1.6267643E0,1.0023907E0],"tree_param":{"num_deleted":"0","num_feature":"39","num_nodes":"15","size_leaf_vector":"1"}},{"base_weights":[4.739183E-2,4.51625E-1,-9.985016E-2,-5.019785E-1,5.7451904E-1,3.4954324E-1,-3.907388E-1,-6.535835E-2,-9.043549E-3,6.597718E-2,-3.3014853E-2,7.500004E-2,-3.9042294E-2,3.181496E-2,-6.7518786E-2],"categories":[],"categories_nodes":[],"categories_segments":[],"categories_sizes":[],"default_left":[0,0,0,0,0,0,0,0,0,0,0,0,0,0,0],"id":68,"left_children":[1,3,5,7,9,11,13,-1,-1,-1,-1,-1,-1,-1,-1],"loss_changes":[5.084765E0,2.9589863E0,8.356942E0,1.3650471E-1,1.8106861E0,7.7713127E0,8.007517E0,0E0,0E0,0E0,0E0,0E0,0E0,0E0,0E0],"parents":[2147483647,0,0,1,1,2,2,3,3,4,4,5,5,6,6],"right_children":[2,4,6,8,10,12,14,-1,-1,-1,-1,-1,-1,-1,-1],"split_conditions":[5.20533E-1,3.120925E0,9.0226E-2,6.7723946E1,6.368897E0,3.810368E0,2.9437416E1,-6.535835E-2,-9.043549E-3,6.597718E-2,-3.3014853E-2,7.500004E-2,-3.9042294E-2,3.181496E-2,-6.7518786E-2],"split_indices":[19,34,24,33,34,34,22,0,0,0,0,0,0,0,0],"split_type":[0,0,0,0,0,0,0,0,0,0,0,0,0,0,0],"sum_hessian":[8.3671745E1,2.1788128E1,6.1883617E1,2.1352081E0,1.965292E1,2.4237501E1,3.764612E1,1.1305901E0,1.0046182E0,1.8207785E1,1.4451351E0,1.5717757E1,8.519743E0,1.0746299E1,2.6899817E1],"tree_param":{"num_deleted":"0","num_feature":"39","num_nodes":"15","size_leaf_vector":"1"}},{"base_weights":[2.2677643E-2,1.17871E-1,-5.5884635E-1,-1.7749026E-1,3.2928252E-1,-8.962911E-1,6.7571335E-2,9.45314E-3,-1.3426585E-1,-3.1606164E-2,5.0786436E-2,-1.1774408E-1,6.0940694E-2],"categories":[],"categories_nodes":[],"categories_segments":[],"categories_sizes":[],"default_left":[0,0,0,0,0,0,0,0,0,0,0,0,0],"id":69,"left_children":[1,3,5,7,9,11,-1,-1,-1,-1,-1,-1,-1],"loss_changes":[4.740191E0,4.640933E0,5.626523E0,1.0036327E1,5.1302137E0,4.9063206E0,0E0,0E0,0E0,0E0,0E0,0E0,0E0],"parents":[2147483647,0,0,1,1,2,2,3,3,4,4,5,5],"right_children":[2,4,6,8,10,12,-1,-1,-1,-1,-1,-1,-1],"split_conditions":[1.51899E-1,2.824E-2,4.110593E1,4.30184E-1,6.105263E0,2.4727112E1,6.7571335E-2,9.45314E-3,-1.3426585E-1,-3.1606164E-2,5.0786436E-2,-1.1774408E-1,6.0940694E-2],"split_indices":[24,9,22,26,29,32,0,0,0,0,0,0,0],"split_type":[0,0,0,0,0,0,0,0,0,0,0,0,0],"sum_hessian":[8.343919E1,7.238701E1,1.1052183E1,3.0264782E1,4.2122227E1,8.894917E0,2.1572664E0,2.528142E1,4.983363E0,8.962923E0,3.31593E1,7.6790633E0,1.2158537E0],"tree_param":{"num_deleted":"0","num_feature":"39","num_nodes":"13","size_leaf_vector":"1"}},{"base_weights":[2.2989322E-2,3.7755856E-1,-1.1664862E-1,-7.180566E-2,5.016114E-1,4.7420916E-1,-3.286374E-1,8.1421874E-2,-4.8821545E-3,-6.2399097E-2,6.1722886E-2,1.3096136E-2,-5.7820316E-2],"categories":[],"categories_nodes":[],"categories_segments":[],"categories_sizes":[],"default_left":[0,0,0,0,0,0,0,0,0,0,0,0,0],"id":70,"left_children":[1,3,5,-1,7,9,11,-1,-1,-1,-1,-1,-1],"loss_changes":[4.0082974E0,3.4670606E0,7.4467688E0,0E0,3.674344E0,2.8634787E0,5.057085E0,0E0,0E0,0E0,0E0,0E0,0E0],"parents":[2147483647,0,0,1,1,2,2,4,4,5,5,6,6],"right_children":[2,4,6,-1,8,10,12,-1,-1,-1,-1,-1,-1],"split_conditions":[5.20533E-1,2.943114E0,2.842443E0,-7.180566E-2,2.328636E1,1.0016653E1,9E0,8.1421874E-2,-4.8821545E-3,-6.2399097E-2,6.1722886E-2,1.3096136E-2,-5.7820316E-2],"split_indices":[19,34,34,0,28,28,23,0,0,0,0,0,0],"split_type":[0,0,0,0,0,0,0,0,0,0,0,0,0],"sum_hessian":[7.9067665E1,2.1859102E1,5.7208565E1,1.7362754E0,2.0122828E1,1.4779103E1,4.242946E1,1.2528361E1,7.594466E0,1.3154253E0,1.3463678E1,1.5098817E1,2.7330645E1],"tree_param":{"num_deleted":"0","num_feature":"39","num_nodes":"13","size_leaf_vector":"1"}},{"base_weights":[-6.8688504E-2,3.8933417E-1,-1.8414114E-1,7.0256644E-1,-3.3501518E-1,-3.6275175E-1,2.7423522E-1,8.8927954E-2,-5.562563E-2,-7.953537E-2,3.999095E-2,-1.1935133E-2,-8.672741E-2,4.7814574E-2,-7.580136E-2],"categories":[],"categories_nodes":[],"categories_segments":[],"categories_sizes":[],"default_left":[0,0,0,0,0,0,0,0,0,0,0,0,0,0,0],"id":71,"left_children":[1,3,5,7,9,11,13,-1,-1,-1,-1,-1,-1,-1,-1],"loss_changes":[4.1818953E0,3.8586144E0,5.237524E0,3.1908393E0,2.1781242E0,5.495127E0,4.186292E0,0E0,0E0,0E0,0E0,0E0,0E0,0E0,0E0],"parents":[2147483647,0,0,1,1,2,2,3,3,4,4,5,5,6,6],"right_children":[2,4,6,8,10,12,14,-1,-1,-1,-1,-1,-1,-1,-1],"split_conditions":[4.1636E-2,7.613E-3,6.17384E0,5.916563E0,3.2815544E1,3.809166E0,5.068365E0,8.8927954E-2,-5.562563E-2,-7.953537E-2,3.999095E-2,-1.1935133E-2,-8.672741E-2,4.7814574E-2,-7.580136E-2],"split_indices":[16,10,2,34,22,36,34,0,0,0,0,0,0,0,0],"split_type":[0,0,0,0,0,0,0,0,0,0,0,0,0,0,0],"sum_hessian":[7.672709E1,1.4969194E1,6.1757893E1,1.0471185E1,4.49801E0,4.4591152E1,1.716674E1,9.374315E0,1.0968693E0,2.7151086E0,1.7829014E0,3.0913761E1,1.367739E1,1.4783248E1,2.3834922E0],"tree_param":{"num_deleted":"0","num_feature":"39","num_nodes":"15","size_leaf_vector":"1"}},{"base_weights":[5.3143628E-2,-1.01953514E-1,3.9583156E-1,2.6337028E-1,-4.0688863E-1,9.6867375E-2,1.2510458E-1,-8.427304E-2,4.3951582E-2,-5.7375003E-2,7.3221676E-2,-7.446667E-2,3.7571814E-2],"categories":[],"categories_nodes":[],"categories_segments":[],"categories_sizes":[],"default_left":[0,0,0,0,0,0,0,0,0,0,0,0,0],"id":72,"left_children":[1,3,5,7,9,-1,11,-1,-1,-1,-1,-1,-1],"loss_changes":[4.255506E0,6.277835E0,3.7426956E0,5.3986335E0,6.2333474E0,0E0,4.2180047E0,0E0,0E0,0E0,0E0,0E0,0E0],"parents":[2147483647,0,0,1,1,2,2,3,3,4,4,6,6],"right_children":[2,4,6,8,10,-1,12,-1,-1,-1,-1,-1,-1],"split_conditions":[1.0996E-2,6.713E-2,6.267763E0,5.98198E0,2.2286856E1,9.6867375E-2,2.180489E0,-8.427304E-2,4.3951582E-2,-5.7375003E-2,7.3221676E-2,-7.446667E-2,3.7571814E-2],"split_indices":[12,16,8,13,32,0,3,0,0,0,0,0,0],"split_type":[0,0,0,0,0,0,0,0,0,0,0,0,0],"sum_hessian":[7.830679E1,5.4392006E1,2.391479E1,2.4807722E1,2.9584282E1,6.847609E0,1.706718E1,2.888045E0,2.1919678E1,2.6237244E1,3.3470373E0,3.376709E0,1.3690472E1],"tree_param":{"num_deleted":"0","num_feature":"39","num_nodes":"13","size_leaf_vector":"1"}},{"base_weights":[-4.5366757E-2,-1.4659849E-1,6.1503816E-1,-3.529803E-1,2.8277925E-1,7.5361127E-1,-2.2229156E-2,1.4953308E-2,-5.6990918E-2,6.80128E-2,-4.0172186E-2,8.208622E-2,1.5478151E-2],"categories":[],"categories_nodes":[],"categories_segments":[],"categories_sizes":[],"default_left":[0,0,0,0,0,0,0,0,0,0,0,0,0],"id":73,"left_children":[1,3,5,7,9,11,-1,-1,-1,-1,-1,-1,-1],"loss_changes":[5.085577E0,5.912775E0,1.3422163E0,4.963159E0,6.2159953E0,2.3193645E-1,0E0,0E0,0E0,0E0,0E0,0E0,0E0],"parents":[2147483647,0,0,1,1,2,2,3,3,4,4,5,5],"right_children":[2,4,6,8,10,12,-1,-1,-1,-1,-1,-1,-1],"split_conditions":[4.6E1,1.0996E-2,5.436523E0,5.29683E-1,5.433794E1,2.03008E-1,-2.2229156E-2,1.4953308E-2,-5.6990918E-2,6.80128E-2,-4.0172186E-2,8.208622E-2,1.5478151E-2],"split_indices":[37,12,34,19,21,15,0,0,0,0,0,0,0],"split_type":[0,0,0,0,0,0,0,0,0,0,0,0,0],"sum_hessian":[7.3721306E1,6.459736E1,9.123942E0,4.3747776E1,2.0849585E1,7.9141755E0,1.2097665E0,1.3284667E1,3.0463108E1,1.3195858E1,7.6537266E0,6.7817783E0,1.1323974E0],"tree_param":{"num_deleted":"0","num_feature":"39","num_nodes":"13","size_leaf_vector":"1"}},{"base_weights":[1.9885018E-2,1.6076854E-1,-3.245586E-1,-1.2886497E-1,5.187807E-1,2.584097E-1,-9.5900756E-1,7.304167E-2,-3.0481104E-2,8.0301814E-2,-3.661229E-2,-3.4377474E-2,7.967298E-2,-1.3984482E-1,1.7976332E-2],"categories":[],"categories_nodes":[],"categories_segments":[],"categories_sizes":[],"default_left":[0,0,0,0,0,0,0,0,0,0,0,0,0,0,0],"id":74,"left_children":[1,3,5,7,9,11,13,-1,-1,-1,-1,-1,-1,-1,-1],"loss_changes":[3.7921894E0,5.8080454E0,8.645219E0,4.971079E0,6.571984E0,4.364832E0,5.798191E0,0E0,0E0,0E0,0E0,0E0,0E0,0E0,0E0],"parents":[2147483647,0,0,1,1,2,2,3,3,4,4,5,5,6,6],"right_children":[2,4,6,8,10,12,14,-1,-1,-1,-1,-1,-1,-1,-1],"split_conditions":[4.44723E-1,4.17002E-1,3.345145E0,5.0344E-1,4.873371E0,1.2733944E2,6.224311E0,7.304167E-2,-3.0481104E-2,8.0301814E-2,-3.661229E-2,-3.4377474E-2,7.967298E-2,-1.3984482E-1,1.7976332E-2],"split_indices":[26,5,34,25,34,28,1,0,0,0,0,0,0,0,0],"split_type":[0,0,0,0,0,0,0,0,0,0,0,0,0,0,0],"sum_hessian":[7.6071625E1,5.4367573E1,2.1704048E1,3.0407677E1,2.3959898E1,1.1619804E1,1.0084243E1,4.632449E0,2.5775227E1,1.8204891E1,5.7550054E0,5.6551456E0,5.9646587E0,7.1118255E0,2.9724178E0],"tree_param":{"num_deleted":"0","num_feature":"39","num_nodes":"15","size_leaf_vector":"1"}},{"base_weights":[-4.6675522E-2,3.6521816E-1,-1.5139458E-1,-7.945539E-2,5.71837E-1,3.830447E-2,-5.1997167E-1,8.145381E-2,4.932471E-3,-6.737315E-2,2.1258779E-2,3.7535217E-2,-8.053978E-2],"categories":[],"categories_nodes":[],"categories_segments":[],"categories_sizes":[],"default_left":[0,0,0,0,0,0,0,0,0,0,0,0,0],"id":75,"left_children":[1,3,5,-1,7,9,11,-1,-1,-1,-1,-1,-1],"loss_changes":[3.2729628E0,4.1481266E0,4.2279186E0,0E0,1.6927447E0,5.1896305E0,5.545876E0,0E0,0E0,0E0,0E0,0E0,0E0],"parents":[2147483647,0,0,1,1,2,2,4,4,5,5,6,6],"right_children":[2,4,6,-1,8,10,12,-1,-1,-1,-1,-1,-1],"split_conditions":[2.842443E0,7.090909E1,5.78957E0,-7.945539E-2,3.5032017E1,5.90767E0,1.52671E-1,8.145381E-2,4.932471E-3,-6.737315E-2,2.1258779E-2,3.7535217E-2,-8.053978E-2],"split_indices":[34,27,14,0,22,13,35,0,0,0,0,0,0],"split_type":[0,0,0,0,0,0,0,0,0,0,0,0,0],"sum_hessian":[7.359862E1,1.441443E1,5.9184185E1,1.7493953E0,1.2665035E1,3.966533E1,1.9518854E1,8.266467E0,4.398568E0,7.2361703E0,3.242916E1,4.6421885E0,1.4876665E1],"tree_param":{"num_deleted":"0","num_feature":"39","num_nodes":"13","size_leaf_vector":"1"}},{"base_weights":[9.489879E-2,1.562485E-1,-6.545415E-1,-2.484097E-2,7.6016325E-1,-1.8121457E-3,-8.061677E-2,1.8483544E-2,-5.5689145E-2,9.798106E-2,-1.1464833E-2],"categories":[],"categories_nodes":[],"categories_segments":[],"categories_sizes":[],"default_left":[0,0,0,0,0,0,0,0,0,0,0],"id":76,"left_children":[1,3,5,7,9,-1,-1,-1,-1,-1,-1],"loss_changes":[3.3723338E0,7.29676E0,5.2329993E-1,5.922353E0,3.0682468E0,0E0,0E0,0E0,0E0,0E0,0E0],"parents":[2147483647,0,0,1,1,2,2,3,3,4,4],"right_children":[2,4,6,8,10,-1,-1,-1,-1,-1,-1],"split_conditions":[4.0861E0,5.32288E-1,6.5357506E1,1.7329E-1,5.51499E-1,-1.8121457E-3,-8.061677E-2,1.8483544E-2,-5.5689145E-2,9.798106E-2,-1.1464833E-2],"split_indices":[3,5,21,15,6,0,0,0,0,0,0],"split_type":[0,0,0,0,0,0,0,0,0,0,0],"sum_hessian":[7.012244E1,6.5548134E1,4.5743027E0,5.116477E1,1.4383366E1,1.0955349E0,3.4787679E0,3.716928E1,1.3995489E1,1.1400826E1,2.9825394E0],"tree_param":{"num_deleted":"0","num_feature":"39","num_nodes":"11","size_leaf_vector":"1"}},{"base_weights":[-8.199982E-3,5.8405256E-1,-8.645189E-2,8.687268E-2,-3.564867E-2,-7.225234E-1,6.2951304E-2,4.9318135E-2,-1.2129229E-1,4.087215E-2,-1.984621E-2],"categories":[],"categories_nodes":[],"categories_segments":[],"categories_sizes":[],"default_left":[0,0,0,0,0,0,0,0,0,0,0],"id":77,"left_children":[1,3,5,-1,-1,7,9,-1,-1,-1,-1],"loss_changes":[3.4447114E0,2.63274E0,6.2759123E0,0E0,0E0,8.080576E0,4.9631553E0,0E0,0E0,0E0,0E0],"parents":[2147483647,0,0,1,1,2,2,5,5,6,6],"right_children":[2,4,6,-1,-1,8,10,-1,-1,-1,-1],"split_conditions":[2.457026E0,3.638756E1,3.21275E-1,8.687268E-2,-3.564867E-2,1.13924E-1,7.129032E0,4.9318135E-2,-1.2129229E-1,4.087215E-2,-1.984621E-2],"split_indices":[34,22,38,0,0,15,29,0,0,0,0],"split_type":[0,0,0,0,0,0,0,0,0,0,0],"sum_hessian":[7.2238266E1,7.676282E0,6.456198E1,5.951336E0,1.7249461E0,1.1550526E1,5.3011456E1,3.3184316E0,8.232094E0,2.2580647E1,3.043081E1],"tree_param":{"num_deleted":"0","num_feature":"39","num_nodes":"11","size_leaf_vector":"1"}},{"base_weights":[-6.5309545E-3,8.108793E-2,-5.820065E-2,-1.5975349E-1,4.742207E-1,3.866708E-2,-2.967988E-2,7.069259E-2,-6.1629534E-2],"categories":[],"categories_nodes":[],"categories_segments":[],"categories_sizes":[],"default_left":[0,0,0,0,0,0,0,0,0],"id":78,"left_children":[1,-1,3,5,7,-1,-1,-1,-1],"loss_changes":[2.9445174E0,0E0,3.614788E0,4.287152E0,3.1603186E0,0E0,0E0,0E0,0E0],"parents":[2147483647,0,0,2,2,3,3,4,4],"right_children":[2,-1,4,6,8,-1,-1,-1,-1],"split_conditions":[1.692565E0,8.108793E-2,1.334344E0,6.267763E0,4.049929E0,3.866708E-2,-2.967988E-2,7.069259E-2,-6.1629534E-2],"split_indices":[2,0,18,8,3,0,0,0,0],"split_type":[0,0,0,0,0,0,0,0,0],"sum_hessian":[6.759952E1,3.1454382E0,6.445408E1,5.4717365E1,9.736716E0,1.0606374E1,4.4110992E1,8.314282E0,1.4224339E0],"tree_param":{"num_deleted":"0","num_feature":"39","num_nodes":"9","size_leaf_vector":"1"}},{"base_weights":[2.4226237E-2,8.2655594E-2,-2.982421E-2,-1.497082E-1,3.8556114E-1,-5.3029736E-3,-8.598071E-2,3.7620922E-3,8.016803E-2],"categories":[],"categories_nodes":[],"categories_segments":[],"categories_sizes":[],"default_left":[0,0,0,0,0,0,0,0,0],"id":79,"left_children":[1,-1,3,5,7,-1,-1,-1,-1],"loss_changes":[3.1063986E0,0E0,3.4212432E0,3.6022534E0,2.2005806E0,0E0,0E0,0E0,0E0],"parents":[2147483647,0,0,2,2,3,3,4,4],"right_children":[2,-1,4,6,8,-1,-1,-1,-1],"split_conditions":[1.692565E0,8.2655594E-2,1.241E-1,1.83315E-1,4.42228E-1,-5.3029736E-3,-8.598071E-2,3.7620922E-3,8.016803E-2],"split_indices":[2,0,16,15,5,0,0,0,0],"split_type":[0,0,0,0,0,0,0,0,0],"sum_hessian":[7.006322E1,3.5199819E0,6.654323E1,5.213592E1,1.4407309E1,4.683422E1,5.3017006E0,8.440309E0,5.9669995E0],"tree_param":{"num_deleted":"0","num_feature":"39","num_nodes":"9","size_leaf_vector":"1"}},{"base_weights":[-5.213415E-3,6.959771E-2,-7.0156264E-1,-2.6565995E-3,7.80666E-1,-1.3682078E0,4.7978263E-2,1.1887633E-2,-6.38499E-2,2.2658033E-2,8.4785774E-2,-1.8330209E-1,-6.709658E-2],"categories":[],"categories_nodes":[],"categories_segments":[],"categories_sizes":[],"default_left":[0,0,0,0,0,0,0,0,0,0,0,0,0],"id":80,"left_children":[1,3,5,7,9,11,-1,-1,-1,-1,-1,-1,-1],"loss_changes":[3.7034466E0,3.3034801E0,6.0872364E0,4.66044E0,2.8686762E-2,2.8291225E-1,0E0,0E0,0E0,0E0,0E0,0E0,0E0],"parents":[2147483647,0,0,1,1,2,2,3,3,4,4,5,5],"right_children":[2,4,6,8,10,12,-1,-1,-1,-1,-1,-1,-1],"split_conditions":[4.86429E-1,4.1600727E1,2.9159E-2,1.41772E-1,8.155E-3,1.93293E-1,4.7978263E-2,1.1887633E-2,-6.38499E-2,2.2658033E-2,8.4785774E-2,-1.8330209E-1,-6.709658E-2],"split_indices":[6,22,9,24,12,20,0,0,0,0,0,0,0],"split_type":[0,0,0,0,0,0,0,0,0,0,0,0,0],"sum_hessian":[6.915343E1,6.325751E1,5.8959126E0,5.8326954E1,4.930557E0,3.667901E0,2.2280118E0,4.9650043E1,8.676912E0,1.0060964E0,3.9244602E0,1.2233808E0,2.4445202E0],"tree_param":{"num_deleted":"0","num_feature":"39","num_nodes":"13","size_leaf_vector":"1"}},{"base_weights":[-1.3905539E-3,6.6037387E-1,-7.5452544E-2,8.1091577E-1,-7.000728E-3,-5.260794E-1,1.0211508E-1,2.0269502E-2,9.057571E-2,6.3009374E-2,-8.8653125E-2,6.569668E-2,-1.6864123E-2],"categories":[],"categories_nodes":[],"categories_segments":[],"categories_sizes":[],"default_left":[0,0,0,0,0,0,0,0,0,0,0,0,0],"id":81,"left_children":[1,3,5,7,-1,9,11,-1,-1,-1,-1,-1,-1],"loss_changes":[3.3963478E0,8.236966E-1,5.039176E0,1.5458488E-1,0E0,7.9657946E0,6.950927E0,0E0,0E0,0E0,0E0,0E0,0E0],"parents":[2147483647,0,0,1,1,2,2,3,3,5,5,6,6],"right_children":[2,4,6,8,-1,10,12,-1,-1,-1,-1,-1,-1],"split_conditions":[3.659043E0,8E0,2.250471E0,2E0,-7.000728E-3,2.457026E0,1.95475E-1,2.0269502E-2,9.057571E-2,6.3009374E-2,-8.8653125E-2,6.569668E-2,-1.6864123E-2],"split_indices":[8,37,3,37,0,34,35,0,0,0,0,0,0],"split_type":[0,0,0,0,0,0,0,0,0,0,0,0,0],"sum_hessian":[6.72802E1,5.9750414E0,6.1305153E1,4.8625393E0,1.112502E0,1.6773943E1,4.453121E1,1.079145E0,3.7833946E0,3.808823E0,1.2965119E1,1.4136122E1,3.0395088E1],"tree_param":{"num_deleted":"0","num_feature":"39","num_nodes":"13","size_leaf_vector":"1"}},{"base_weights":[-2.7334573E-2,3.9553568E-2,-7.332124E-1,-1.1441135E-1,6.500493E-1,5.896039E-2,-1.2721696E0,-2.3646787E-2,7.191491E-2,8.906734E-2,-6.350062E-2,-1.6667175E-1,-5.0460476E-2],"categories":[],"categories_nodes":[],"categories_segments":[],"categories_sizes":[],"default_left":[0,0,0,0,0,0,0,0,0,0,0,0,0],"id":82,"left_children":[1,3,5,7,9,-1,11,-1,-1,-1,-1,-1,-1],"loss_changes":[3.2202184E0,5.966706E0,4.9574957E0,5.349978E0,4.5158653E0,0E0,5.2471447E-1,0E0,0E0,0E0,0E0,0E0,0E0],"parents":[2147483647,0,0,1,1,2,2,3,3,4,4,6,6],"right_children":[2,4,6,8,10,-1,12,-1,-1,-1,-1,-1,-1],"split_conditions":[5.39537E-1,5.40806E-1,3.345145E0,1.255345E0,4.0861E0,5.896039E-2,3.712283E0,-2.3646787E-2,7.191491E-2,8.906734E-2,-6.350062E-2,-1.6667175E-1,-5.0460476E-2],"split_indices":[6,5,34,18,3,0,3,0,0,0,0,0,0],"split_type":[0,0,0,0,0,0,0,0,0,0,0,0,0],"sum_hessian":[6.6589264E1,6.168777E1,4.901494E0,4.9912582E1,1.17751875E1,1.3917099E0,3.5097842E0,4.4162304E1,5.750278E0,1.0176548E1,1.5986394E0,1.5444578E0,1.9653263E0],"tree_param":{"num_deleted":"0","num_feature":"39","num_nodes":"13","size_leaf_vector":"1"}},{"base_weights":[2.1977574E-2,5.627334E-1,-5.4798193E-2,8.5104756E-2,-2.2065158E-1,-7.5215757E-1,1.0312691E-1,2.5703186E-2,-5.7347115E-2,3.0364757E-2,-1.2729247E-1,4.2369943E-2,-1.3462141E-2],"categories":[],"categories_nodes":[],"categories_segments":[],"categories_sizes":[],"default_left":[0,0,0,0,0,0,0,0,0,0,0,0,0],"id":83,"left_children":[1,3,5,-1,7,9,11,-1,-1,-1,-1,-1,-1],"loss_changes":[2.8903527E0,2.141903E0,6.8202033E0,0E0,6.735159E-1,6.6685133E0,3.9286878E0,0E0,0E0,0E0,0E0,0E0,0E0],"parents":[2147483647,0,0,1,1,2,2,4,4,5,5,6,6],"right_children":[2,4,6,-1,8,10,12,-1,-1,-1,-1,-1,-1],"split_conditions":[2.457026E0,3.671318E1,3.21275E-1,8.5104756E-2,5.332601E0,1.21554E-1,7.129032E0,2.5703186E-2,-5.7347115E-2,3.0364757E-2,-1.2729247E-1,4.2369943E-2,-1.3462141E-2],"split_indices":[34,22,38,0,13,15,29,0,0,0,0,0,0],"split_type":[0,0,0,0,0,0,0,0,0,0,0,0,0],"sum_hessian":[6.787588E1,7.6518593E0,6.0224022E1,5.53018E0,2.121679E0,1.04253645E1,4.9798656E1,1.0166821E0,1.1049969E0,3.5813813E0,6.8439827E0,2.087258E1,2.8926077E1],"tree_param":{"num_deleted":"0","num_feature":"39","num_nodes":"13","size_leaf_vector":"1"}},{"base_weights":[1.0294446E-2,7.663058E-2,-6.9366956E-1,3.9189523E-1,-1.0652806E-1,-2.1730207E-3,-8.3951056E-2,7.01261E-2,-9.503755E-3,-4.2171873E-2,4.8250943E-2],"categories":[],"categories_nodes":[],"categories_segments":[],"categories_sizes":[],"default_left":[0,0,0,0,0,0,0,0,0,0,0],"id":84,"left_children":[1,3,5,7,9,-1,-1,-1,-1,-1,-1],"loss_changes":[2.968465E0,3.3881526E0,5.183518E-1,3.306929E0,7.1551027E0,0E0,0E0,0E0,0E0,0E0,0E0],"parents":[2147483647,0,0,1,1,2,2,3,3,4,4],"right_children":[2,4,6,8,10,-1,-1,-1,-1,-1,-1],"split_conditions":[9.064562E1,6.713E-2,3.593796E0,7.67E-3,5.807376E0,-2.1730207E-3,-8.3951056E-2,7.01261E-2,-9.503755E-3,-4.2171873E-2,4.8250943E-2],"split_indices":[33,16,3,10,2,0,0,0,0,0,0],"split_type":[0,0,0,0,0,0,0,0,0,0,0],"sum_hessian":[6.1428646E1,5.695298E1,4.475665E0,2.0510063E1,3.6442917E1,1.0030894E0,3.472576E0,1.2272652E1,8.237412E0,2.3924894E1,1.2518023E1],"tree_param":{"num_deleted":"0","num_feature":"39","num_nodes":"11","size_leaf_vector":"1"}},{"base_weights":[3.9923187E-2,7.1127844E-1,-2.260847E-2,1.4537679E-2,8.0918156E-2,-4.9034318E-1,1.328819E-1,4.53245E-2,-7.487039E-2,3.2664817E-2,-4.726025E-2],"categories":[],"categories_nodes":[],"categories_segments":[],"categories_sizes":[],"default_left":[0,0,0,0,0,0,0,0,0,0,0],"id":85,"left_children":[1,3,5,-1,-1,7,9,-1,-1,-1,-1],"loss_changes":[2.6541815E0,1.8072248E-1,4.316503E0,0E0,0E0,3.9467454E0,5.393741E0,0E0,0E0,0E0,0E0],"parents":[2147483647,0,0,1,1,2,2,5,5,6,6],"right_children":[2,4,6,-1,-1,8,10,-1,-1,-1,-1],"split_conditions":[5.16544E-1,4.9748154E1,3.11198E-1,1.4537679E-2,8.0918156E-2,2.457026E0,4.313835E0,4.53245E-2,-7.487039E-2,3.2664817E-2,-4.726025E-2],"split_indices":[25,21,5,0,0,34,34,0,0,0,0],"split_type":[0,0,0,0,0,0,0,0,0,0,0],"sum_hessian":[6.1840416E1,4.3851943E0,5.7455223E1,1.0132557E0,3.3719385E0,1.3797392E1,4.365783E1,2.80363E0,1.0993762E1,3.342252E1,1.0235311E1],"tree_param":{"num_deleted":"0","num_feature":"39","num_nodes":"11","size_leaf_vector":"1"}},{"base_weights":[-1.1597707E-2,7.558068E-2,-7.2399236E-2,7.632309E-2,-5.264531E-1,-1.652669E-2,6.2405903E-2,-2.1163507E-3,-1.0479938E-1],"categories":[],"categories_nodes":[],"categories_segments":[],"categories_sizes":[],"default_left":[0,0,0,0,0,0,0,0,0],"id":86,"left_children":[1,-1,3,5,7,-1,-1,-1,-1],"loss_changes":[3.0723436E0,0E0,4.148456E0,6.2829647E0,3.9669003E0,0E0,0E0,0E0,0E0],"parents":[2147483647,0,0,2,2,3,3,4,4],"right_children":[2,-1,4,6,8,-1,-1,-1,-1],"split_conditions":[1.101E3,7.558068E-2,4.155073E0,2.708E2,6.18586E-1,-1.652669E-2,6.2405903E-2,-2.1163507E-3,-1.0479938E-1],"split_indices":[0,0,34,27,19,0,0,0,0],"split_type":[0,0,0,0,0,0,0,0,0],"sum_hessian":[6.367349E1,3.8353262E0,5.983816E1,4.5701008E1,1.4137156E1,3.2197792E1,1.3503215E1,7.7089725E0,6.428183E0],"tree_param":{"num_deleted":"0","num_feature":"39","num_nodes":"9","size_leaf_vector":"1"}}]},"name":"gbtree"},"learner_model_param":{"base_score":"6.293459E-1","boost_from_average":"1","num_class":"0","num_feature":"39","num_target":"1"},"objective":{"name":"binary:logistic","reg_loss_param":{"scale_pos_weight":"3.84420013"}}},"version":[2,0,3]}